svm_type c_svc
kernel_type linear
nr_class 2
total_sv 2699
rho -0.225438
label -1 1
probA -1.68677
probB -1.07177
nr_sv 2044 655
SV
0.0961842588597739 0:1 41:1 592:1 1445:1 1503:1 1571:1 1696:1 3949:1 5392:1 5986:1 6231:1 7572:1 7891:1 8388:1 8419:1 8427:1 8612:1 9095:1 11202:1 12154:1 12209:1 17096:1 17114:1 17354:1 17426:1 17534:1 17607:1 17682:1 18401:1 18833:1 18890:1 
0.4302527102513646 1433:1 3835:1 4198:1 8003:1 8302:1 8419:1 8612:1 10567:1 11153:1 11202:1 11810:1 11967:1 13500:1 17034:1 17551:1 17633:1 18890:1 
0.07565820060355764 1175:1 2330:1 3291:1 4723:1 5129:1 5446:1 5721:1 7333:1 7691:1 7868:1 8078:1 8134:1 8388:1 8419:1 9476:1 10567:1 11034:1 11202:1 11731:1 11796:1 15501:1 16753:1 17034:1 17354:1 17426:1 17444:1 17607:1 18890:1 19093:1 
0.1130804676307377 101:1 592:1 1251:1 2003:1 5129:1 6383:1 6584:1 6708:1 7333:1 7891:1 8078:1 8419:1 8612:1 9453:1 9709:1 9770:1 10567:1 10838:1 11202:1 11402:1 11796:1 11919:1 11967:1 12956:1 17261:1 17354:1 18890:1 19076:1 
0.1215314283216019 41:1 3835:1 7185:1 8419:1 9115:1 10088:1 11202:1 17034:1 17607:1 18401:1 18690:1 18890:1 
0.1569585311300488 0:1 41:1 5175:1 5270:1 7679:1 7872:1 8419:1 14096:1 14664:1 15255:1 19045:1 19258:1 
0.1071301122779076 592:1 4040:1 6469:1 7234:1 7997:1 8419:1 11202:1 14977:1 15857:1 17366:1 19271:1 
0.2956818418205217 1464:1 7384:1 7622:1 7868:1 8419:1 9115:1 9197:1 10058:1 11202:1 12627:1 14731:1 15241:1 17350:1 18916:1 19093:1 19442:1 
0.01125934634943195 0:1 173:1 343:1 3067:1 7241:1 7384:1 8036:1 8257:1 8419:1 9115:1 9901:1 10069:1 10567:1 11202:1 11320:1 13588:1 15896:1 15980:1 17350:1 17354:1 17607:1 18488:1 19355:1 
0.3210813669792347 0:1 592:1 1398:1 2003:1 3867:1 4194:1 4256:1 7342:1 7384:1 7868:1 8267:1 8419:1 9115:1 10095:1 11202:1 11732:1 11796:1 11797:1 12693:1 14731:1 16243:1 16348:1 17342:1 17350:1 17354:1 17444:1 17607:1 18401:1 18556:1 18890:1 19047:1 19129:1 19355:1 
0.3305225340033932 0:1 1965:1 2003:1 7891:1 9115:1 10567:1 11028:1 11202:1 11561:1 12818:1 14461:1 16442:1 17342:1 
0.214247552422866 1433:1 2003:1 2418:1 3949:1 6977:1 7679:1 8419:1 9095:1 9864:1 11202:1 11458:1 11731:1 11796:1 16636:1 17034:1 17350:1 17354:1 19101:1 19357:1 
0.3102072492349017 0:1 592:1 1201:1 1464:1 5066:1 6458:1 6708:1 7234:1 7352:1 8285:1 8419:1 9095:1 9115:1 9661:1 10060:1 10271:1 11202:1 11393:1 11561:1 12643:1 16453:1 16869:1 17607:1 17670:1 18058:1 18556:1 18955:1 19258:1 19327:1 19331:1 
0.1192969284517771 567:1 592:1 4854:1 7301:1 7331:1 8419:1 8612:1 9115:1 9222:1 10301:1 11771:1 11796:1 11810:1 12890:1 13588:1 15085:1 15980:1 17354:1 17607:1 18198:1 
0.05127640327092089 151:1 592:1 1999:1 2426:1 6449:1 7891:1 8419:1 9901:1 10567:1 11409:1 12894:1 17354:1 17607:1 18058:1 18401:1 18472:1 19322:1 
0.04914018784967095 592:1 1398:1 1445:1 2003:1 2426:1 6731:1 8419:1 8612:1 8849:1 10748:1 11096:1 11202:1 11731:1 11967:1 15985:1 17354:1 17607:1 18855:1 18890:1 19258:1 19477:1 
4 1398:1 3835:1 6505:1 6708:1 7679:1 8419:1 9115:1 11732:1 12012:1 17034:1 17354:1 17551:1 17607:1 18804:1 
0.2490240549366446 0:1 924:1 1106:1 1433:1 1616:1 2354:1 2806:1 3076:1 5005:1 5129:1 7376:1 7679:1 7801:1 7891:1 8321:1 8386:1 8419:1 9115:1 10567:1 11202:1 11796:1 12158:1 12587:1 13500:1 13857:1 14206:1 14874:1 15337:1 15896:1 17034:1 17350:1 17354:1 17607:1 18458:1 18890:1 18901:1 19032:1 19076:1 19258:1 19290:1 
0.4684864222730225 592:1 4999:1 6796:1 7188:1 7872:1 8388:1 8419:1 9115:1 10567:1 11028:1 11202:1 11347:1 11731:1 11732:1 11967:1 12776:1 17350:1 17366:1 
0.0122524020831914 0:1 592:1 632:1 810:1 1398:1 4194:1 5495:1 5913:1 6523:1 6708:1 7801:1 8419:1 8612:1 9115:1 9739:1 9901:1 10567:1 11182:1 11202:1 11402:1 11771:1 12012:1 14070:1 15217:1 16328:1 17182:1 17350:1 17354:1 17534:1 17607:1 18401:1 18890:1 19076:1 19112:1 19195:1 19487:1 
0.5134139699573066 451:1 8419:1 9115:1 10094:1 11202:1 11580:1 11731:1 15053:1 17670:1 18690:1 
0.2314287972477053 928:1 1201:1 1938:1 6347:1 8419:1 10188:1 10486:1 11204:1 15896:1 17350:1 19093:1 
0.09402391124673808 0:1 188:1 722:1 939:1 1032:1 1398:1 1433:1 1445:1 2334:1 4701:1 6254:1 6915:1 7185:1 7333:1 7679:1 7801:1 7868:1 7891:1 8134:1 8321:1 8388:1 8419:1 8612:1 9115:1 9660:1 11202:1 11426:1 15688:1 15894:1 15896:1 15991:1 16453:1 17350:1 17444:1 17607:1 17975:1 18054:1 18890:1 19258:1 
0.6572535128984431 0:1 567:1 3128:1 7679:1 8419:1 8612:1 11006:1 11918:1 14656:1 14731:1 15226:1 15851:1 17350:1 17354:1 17405:1 17555:1 17607:1 18556:1 
0.2725684077846815 8388:1 8419:1 10705:1 11202:1 11953:1 14731:1 19176:1 
0.1048580073032791 0:1 567:1 592:1 1610:1 2426:1 2597:1 4194:1 5493:1 8099:1 8419:1 9115:1 9901:1 9983:1 10301:1 10567:1 11796:1 12251:1 12304:1 12525:1 13586:1 14563:1 15442:1 15896:1 16603:1 17354:1 17607:1 17668:1 18401:1 19487:1 
0.1758986623782036 592:1 2003:1 2861:1 3290:1 6449:1 7679:1 7891:1 8419:1 9115:1 9901:1 11006:1 11202:1 11580:1 11731:1 11732:1 16056:1 19076:1 
0.03345230969630725 567:1 1354:1 1433:1 2442:1 4297:1 4847:1 5017:1 5811:1 7185:1 8284:1 8419:1 8612:1 9115:1 9365:1 10572:1 11426:1 11796:1 14251:1 17034:1 17350:1 17354:1 17484:1 18384:1 
0.05983524097023033 0:1 592:1 647:1 2559:1 3709:1 5033:1 6281:1 6529:1 7997:1 8419:1 9115:1 10567:1 10837:1 11028:1 11202:1 11796:1 12564:1 13758:1 14563:1 15337:1 17342:1 17354:1 19034:1 19076:1 19093:1 19176:1 19258:1 
0.3540129640641756 0:1 999:1 1176:1 3048:1 3833:1 4999:1 5129:1 7384:1 7758:1 8041:1 8419:1 8612:1 9115:1 9876:1 10567:1 11202:1 11541:1 12370:1 12753:1 15896:1 16539:1 16972:1 17354:1 17607:1 18642:1 18890:1 18918:1 19034:1 19045:1 19076:1 19093:1 19310:1 
0.08990750900250027 0:1 451:1 567:1 609:1 999:1 1497:1 2135:1 7333:1 7384:1 7801:1 8419:1 9115:1 11109:1 11731:1 15832:1 16745:1 18058:1 18401:1 18890:1 18916:1 
0.1687353122201725 567:1 1433:1 5810:1 7384:1 7679:1 8281:1 8419:1 10058:1 10757:1 11120:1 13813:1 14892:1 17081:1 17482:1 17607:1 
0.1579095568620077 0:1 341:1 592:1 1433:1 1681:1 1802:1 2003:1 4999:1 5059:1 5721:1 6134:1 6315:1 7185:1 7191:1 7246:1 7868:1 8419:1 8612:1 8998:1 9115:1 9331:1 9794:1 11096:1 11202:1 11517:1 11731:1 11967:1 14472:1 15423:1 16219:1 16274:1 16735:1 16869:1 17034:1 17151:1 17354:1 17607:1 18890:1 19032:1 19396:1 
1.16702973239994 1795:1 5059:1 5604:1 6708:1 8419:1 9263:1 10188:1 13832:1 17034:1 17408:1 17426:1 
0.1940743228679802 3290:1 9115:1 12430:1 13456:1 14731:1 15337:1 16314:1 16507:1 17354:1 17607:1 19076:1 
0.2227932324935176 1398:1 5082:1 5750:1 8612:1 9095:1 9115:1 9544:1 10838:1 11580:1 11796:1 12844:1 12973:1 17350:1 17354:1 19195:1 
0.5174564923176274 0:1 679:1 2354:1 2442:1 2734:1 7301:1 8259:1 8419:1 8465:1 8612:1 9410:1 10271:1 11202:1 12670:1 12810:1 15896:1 16636:1 16869:1 17354:1 17607:1 18401:1 19477:1 
0.5555639521232968 1170:1 2783:1 8419:1 9660:1 10586:1 11426:1 14858:1 19258:1 
0.1579174419491198 451:1 592:1 1292:1 1372:1 3287:1 6615:1 7654:1 7679:1 8998:1 11732:1 12406:1 17092:1 17354:1 17607:1 18444:1 
0.1539062618378 5905:1 7333:1 7868:1 8078:1 9102:1 9138:1 10564:1 11239:1 13813:1 17034:1 17239:1 17607:1 19477:1 19487:1 
0.3102580110247523 3324:1 5721:1 6059:1 6979:1 7679:1 7869:1 8419:1 9813:1 11308:1 14097:1 17034:1 17426:1 17607:1 
0.03691653851822047 0:1 592:1 2620:1 2868:1 6954:1 8612:1 9115:1 11334:1 11896:1 13813:1 16453:1 16593:1 17350:1 18955:1 
0.08342364505911036 1240:1 7037:1 10567:1 11202:1 11731:1 11967:1 13571:1 14151:1 17081:1 17350:1 17607:1 17650:1 
0.5619426706452938 0:1 326:1 2086:1 8419:1 8465:1 8508:1 8998:1 12930:1 16495:1 18015:1 19195:1 
0.6534308018972352 27:1 1398:1 2330:1 4723:1 7301:1 8187:1 8419:1 9318:1 10567:1 11731:1 11967:1 12209:1 13848:1 17034:1 17239:1 17350:1 17354:1 17607:1 17649:1 17661:1 18855:1 18860:1 
0.02731576664062723 1308:1 8419:1 11426:1 11469:1 11967:1 15853:1 17350:1 17354:1 18890:1 
0.0311532342997194 592:1 679:1 2318:1 2354:1 2734:1 3607:1 4722:1 8998:1 9753:1 10058:1 10567:1 10837:1 11580:1 11731:1 14705:1 17350:1 17918:1 18729:1 19477:1 
0.2580265043927935 809:1 4071:1 5392:1 7185:1 7348:1 7892:1 7997:1 8419:1 11202:1 11967:1 15896:1 16609:1 17403:1 17444:1 18890:1 19076:1 
0.3370113947627458 0:1 856:1 2783:1 8029:1 8286:1 8419:1 10301:1 15773:1 16037:1 17039:1 17354:1 19258:1 19477:1 
0.1486284406925024 0:1 1175:1 1503:1 5082:1 6923:1 8320:1 9115:1 11967:1 16518:1 17048:1 17354:1 17482:1 17607:1 19026:1 19032:1 
0.1487896752446121 697:1 1175:1 1921:1 7185:1 7301:1 7679:1 9115:1 11034:1 11202:1 11953:1 17047:1 17350:1 17354:1 17426:1 17607:1 18835:1 18890:1 
0.001787439731364464 101:1 567:1 2737:1 5299:1 7185:1 7352:1 8078:1 8419:1 8465:1 8612:1 9115:1 9365:1 10073:1 10758:1 11202:1 11531:1 11743:1 11830:1 14097:1 14731:1 15085:1 16384:1 17607:1 19034:1 19057:1 
0.03121425933589782 491:1 3835:1 5371:1 7917:1 7997:1 9115:1 9792:1 12012:1 14731:1 15337:1 17034:1 19034:1 19477:1 
0.5849432002346371 0:1 687:1 7107:1 8612:1 11096:1 11383:1 13588:1 14731:1 16593:1 17350:1 19155:1 19477:1 19487:1 
0.2208263010684527 1996:1 4523:1 7832:1 8419:1 11202:1 17350:1 17408:1 18810:1 
0.0745750225490073 999:1 5059:1 7333:1 8419:1 9130:1 9547:1 9550:1 9951:1 11582:1 11830:1 11881:1 14731:1 16501:1 17034:1 17350:1 17354:1 17607:1 19057:1 19347:1 
0.0124255885262327 41:1 592:1 7191:1 7701:1 7729:1 7868:1 10873:1 13052:1 16495:1 17350:1 17607:1 17914:1 19477:1 
0.1172884814069555 592:1 1787:1 5918:1 9095:1 9831:1 17376:1 19155:1 
0.7500780866341262 0:1 592:1 999:1 6049:1 6651:1 8419:1 9095:1 9115:1 9365:1 10069:1 11181:1 11531:1 11757:1 15085:1 15873:1 17607:1 18890:1 19440:1 
0.02844387385485525 809:1 5022:1 5033:1 6708:1 6924:1 8612:1 9115:1 11202:1 14316:1 15882:1 16661:1 17354:1 18955:1 19433:1 
0.1300286443742474 0:1 900:1 11022:1 12841:1 16593:1 16964:1 18450:1 18955:1 
0.3444198635038265 342:1 5392:1 7312:1 11757:1 11885:1 12362:1 15337:1 18890:1 
0.3016771386350886 592:1 1175:1 3287:1 7531:1 8419:1 8612:1 8998:1 10444:1 12480:1 13813:1 14612:1 16778:1 17354:1 19258:1 19477:1 
0.5180686773088368 0:1 592:1 3878:1 8419:1 9995:1 13730:1 15085:1 15613:1 19477:1 19487:1 
0.09990041240880583 0:1 1999:1 3765:1 4288:1 8231:1 14460:1 
0.05907986886284236 1398:1 2060:1 5556:1 5693:1 6762:1 8612:1 10903:1 11202:1 13297:1 15434:1 17607:1 18401:1 
0.07024471844141759 0:1 592:1 1696:1 4322:1 7531:1 8419:1 8975:1 10188:1 10301:1 11796:1 14731:1 15337:1 17354:1 
0.5144429286011073 1268:1 2773:1 7185:1 8419:1 11327:1 11796:1 13848:1 15340:1 17408:1 17426:1 17607:1 18955:1 
0.01985797874349289 592:1 900:1 2188:1 4999:1 5459:1 9206:1 11531:1 13610:1 15431:1 
0.09124244466002732 451:1 809:1 2653:1 11202:1 12012:1 12305:1 13217:1 17376:1 
0.6572212496622862 1693:1 2330:1 2442:1 2700:1 7907:1 10908:1 11409:1 11810:1 14731:1 16869:1 17350:1 17376:1 17973:1 19361:1 
0.4644280139792598 0:1 1693:1 4049:1 7107:1 7891:1 8078:1 8419:1 10599:1 17555:1 19093:1 19323:1 
0.3694887300871806 2442:1 5129:1 8331:1 9189:1 9365:1 11202:1 12158:1 13500:1 16001:1 17034:1 17354:1 17363:1 19076:1 19477:1 
0.3159928609025271 0:1 1140:1 1946:1 2330:1 2442:1 3048:1 4757:1 6708:1 8419:1 10758:1 16052:1 17426:1 
0.2581221241290543 199:1 333:1 1266:1 4194:1 6424:1 7242:1 7892:1 8419:1 9137:1 9995:1 11915:1 12712:1 14472:1 16348:1 17350:1 17354:1 17879:1 
0.1402442548722014 592:1 1417:1 2330:1 2697:1 5392:1 7636:1 8890:1 9115:1 9901:1 10783:1 11731:1 14731:1 18723:1 
0.1878960682586207 811:1 1791:1 2628:1 4724:1 5072:1 7185:1 7868:1 8419:1 11028:1 11967:1 13169:1 16869:1 17487:1 19155:1 
0.01460109770169473 343:1 2712:1 3769:1 7348:1 7531:1 7801:1 7868:1 8419:1 9529:1 10301:1 11802:1 11810:1 14874:1 15241:1 15720:1 17354:1 17389:1 17607:1 17661:1 18835:1 19034:1 19076:1 
0.6402429789263049 0:1 1993:1 2330:1 6708:1 8419:1 8612:1 9766:1 9824:1 10382:1 10567:1 12012:1 13588:1 17034:1 17354:1 17389:1 17607:1 17903:1 19357:1 19477:1 
0.3060379478975588 1900:1 2354:1 5749:1 7384:1 9365:1 14321:1 17354:1 
0.6355440429048752 342:1 809:1 1175:1 2442:1 4035:1 7868:1 8419:1 8439:1 9115:1 11202:1 11561:1 11881:1 17607:1 18457:1 19477:1 
0.1420489494069488 8364:1 8419:1 9115:1 10580:1 11202:1 14831:1 17607:1 19076:1 19477:1 
0.002954980188589016 3129:1 3152:1 3166:1 6708:1 6796:1 8612:1 16289:1 17350:1 17354:1 18955:1 19036:1 19477:1 19490:1 
0.2266182782719244 0:1 1661:1 2330:1 2471:1 5129:1 8419:1 9547:1 10572:1 13813:1 17389:1 17466:1 18015:1 18089:1 
0.5257306626330759 2497:1 4722:1 6412:1 6873:1 7334:1 8612:1 11029:1 12114:1 14731:1 16228:1 17350:1 17354:1 19477:1 
0.04822951824095413 5129:1 6923:1 8612:1 9365:1 14606:1 15701:1 16497:1 17354:1 17551:1 19477:1 
0.2408653498040265 3847:1 6134:1 8021:1 8612:1 8943:1 9522:1 11580:1 11623:1 15337:1 17354:1 17366:1 17555:1 
0.2757613059157453 1175:1 2156:1 4723:1 5129:1 7384:1 8302:1 11531:1 14437:1 14881:1 16306:1 16869:1 17034:1 18449:1 18955:1 
0.1596346461634744 0:1 180:1 363:1 451:1 4172:1 9365:1 9410:1 9826:1 10819:1 11768:1 14093:1 17607:1 
0.06292477983393362 0:1 592:1 1738:1 2885:1 6455:1 6708:1 7333:1 7400:1 8419:1 8612:1 9102:1 10181:1 10567:1 11327:1 11533:1 17034:1 17350:1 17354:1 17607:1 18015:1 18444:1 
0.1590452009785823 5314:1 6161:1 8419:1 10188:1 11796:1 13169:1 13588:1 16869:1 17354:1 18955:1 19102:1 
0.3311574867331323 592:1 2010:1 2426:1 2869:1 5042:1 5248:1 8998:1 9115:1 9365:1 10567:1 11202:1 11796:1 14612:1 15337:1 15446:1 15627:1 16145:1 17607:1 17633:1 19227:1 
0.01748455994094663 342:1 451:1 592:1 1999:1 5122:1 7422:1 9115:1 9432:1 9680:1 9901:1 10567:1 11612:1 12012:1 12834:1 14731:1 14986:1 17389:1 
0.01967581249878469 200:1 2354:1 2471:1 9323:1 9410:1 9660:1 9991:1 10567:1 10919:1 11426:1 11731:1 17354:1 17426:1 18415:1 18946:1 18955:1 19477:1 
0.105395870398236 592:1 1033:1 1175:1 1700:1 2506:1 7384:1 7684:1 8612:1 9130:1 9641:1 10046:1 10567:1 11767:1 11967:1 14847:1 15525:1 17239:1 17354:1 17607:1 18955:1 19034:1 19076:1 19477:1 
0.9917015012747438 1619:1 3287:1 4725:1 11463:1 11881:1 14829:1 
0.195639287561638 8863:1 11731:1 11732:1 11796:1 12744:1 15431:1 17081:1 19477:1 
0.4203042334952666 1464:1 2426:1 2803:1 7347:1 7838:1 7891:1 8302:1 8419:1 8612:1 9547:1 9901:1 10567:1 11580:1 11796:1 14731:1 15053:1 17034:1 17350:1 18556:1 19093:1 
0.01553484920915517 1475:1 3235:1 6615:1 6754:1 7868:1 9901:1 10359:1 11796:1 15337:1 15896:1 15991:1 17354:1 17366:1 19455:1 19477:1 
0.00366118568361432 595:1 3250:1 5815:1 6472:1 6701:1 7679:1 7868:1 8419:1 9550:1 9901:1 10483:1 11531:1 11797:1 15039:1 17350:1 17426:1 17607:1 
0.1778780140103119 592:1 778:1 1803:1 5796:1 7241:1 8419:1 8612:1 9995:1 10567:1 13184:1 17354:1 19477:1 
0.06623449944679512 592:1 2180:1 4722:1 9365:1 11094:1 11202:1 11796:1 12929:1 13588:1 17839:1 19301:1 19477:1 
0.7698994575208084 817:1 2494:1 2506:1 4999:1 6985:1 7185:1 8003:1 8612:1 9115:1 10020:1 11132:1 11561:1 15896:1 16636:1 19155:1 19477:1 
0.003461701141237593 592:1 2330:1 4252:1 4368:1 6954:1 7185:1 7348:1 8612:1 9901:1 10838:1 11235:1 11580:1 11881:1 11967:1 12750:1 17354:1 17607:1 17969:1 18955:1 19034:1 
0.5498981265091114 0:1 592:1 687:1 707:1 1464:1 1616:1 3066:1 7868:1 8419:1 8465:1 9115:1 14165:1 17034:1 17354:1 17405:1 17607:1 19356:1 19357:1 19477:1 
1.179785508662783 0:1 1675:1 7259:1 7703:1 8612:1 15337:1 
0.3504859428162346 6615:1 8612:1 9365:1 9504:1 15616:1 15991:1 16111:1 17607:1 18372:1 19477:1 19487:1 
0.004174169544270634 592:1 4168:1 7868:1 8419:1 9365:1 9796:1 9913:1 10567:1 10960:1 11202:1 15896:1 15980:1 17280:1 18401:1 18714:1 19258:1 19355:1 
0.03248892374854683 0:1 342:1 1175:1 5096:1 7892:1 8419:1 8612:1 9817:1 10188:1 11132:1 11202:1 11235:1 11531:1 13832:1 14613:1 15085:1 17342:1 17350:1 17354:1 17607:1 18997:1 
0.2070746524749085 809:1 999:1 1398:1 4027:1 4194:1 8302:1 10359:1 11967:1 12393:1 16887:1 17376:1 19477:1 
0.1165489819519 592:1 999:1 2442:1 8465:1 9457:1 10069:1 10567:1 11202:1 12606:1 17239:1 17408:1 17426:1 19477:1 
0.1049197400008865 4305:1 5314:1 5558:1 8003:1 8419:1 9384:1 11580:1 11796:1 11881:1 12959:1 16921:1 17295:1 17354:1 17607:1 17973:1 18015:1 18855:1 19195:1 19477:1 19487:1 
0.6092943524523818 474:1 1398:1 4297:1 8419:1 8612:1 11132:1 11531:1 11798:1 11918:1 15434:1 17350:1 17607:1 
0.1856675681498857 1487:1 4999:1 6923:1 7633:1 7868:1 8302:1 8419:1 8465:1 8612:1 11096:1 11202:1 11426:1 11731:1 12611:1 14807:1 16453:1 17354:1 17470:1 18401:1 
0.1142443533020916 2355:1 2530:1 3301:1 5456:1 7384:1 11202:1 16956:1 18725:1 19476:1 19477:1 
0.4468539558115653 2277:1 4722:1 5652:1 8302:1 8612:1 9415:1 17354:1 17682:1 18401:1 
1.297317103030574 2442:1 5899:1 7758:1 8372:1 8419:1 10188:1 11202:1 15896:1 17034:1 18449:1 
0.1411816461082939 451:1 592:1 1299:1 5193:1 6899:1 6924:1 9158:1 11202:1 12012:1 14162:1 14858:1 15043:1 17382:1 
0.2581957886950652 4406:1 7299:1 8090:1 
0.6996142185391699 6184:1 7191:1 7795:1 7892:1 8419:1 8612:1 11401:1 17168:1 19209:1 
0.3257481089060165 427:1 3234:1 8998:1 10586:1 10918:1 11055:1 17354:1 
0.1041365188901138 92:1 494:1 592:1 5658:1 5817:1 6301:1 6691:1 7868:1 8419:1 8612:1 9263:1 11058:1 17406:1 19355:1 
0.1242468361279176 1398:1 9901:1 11187:1 17024:1 17155:1 17426:1 19057:1 
0.5021894701062788 2330:1 6338:1 6469:1 7868:1 8419:1 8612:1 9115:1 11202:1 11469:1 11881:1 12392:1 17408:1 18890:1 19350:1 
0.05238101390457433 1372:1 1801:1 2426:1 7107:1 8612:1 10567:1 11460:1 11580:1 11796:1 13704:1 15337:1 17354:1 17498:1 18401:1 19076:1 19093:1 
0.05357872899501315 261:1 511:1 7891:1 8079:1 8419:1 9365:1 11334:1 16842:1 17173:1 17633:1 19477:1 
0.3410200197062903 0:1 2456:1 3734:1 3773:1 5016:1 8302:1 9115:1 10058:1 12012:1 17081:1 17607:1 
0.1908390027945218 0:1 809:1 1499:1 1616:1 4120:1 6796:1 6873:1 6977:1 7631:1 8419:1 8612:1 11202:1 11731:1 17426:1 18746:1 19477:1 
0.01561983347185264 451:1 679:1 1004:1 2733:1 2734:1 3494:1 7242:1 7328:1 8419:1 10984:1 11561:1 11731:1 11963:1 17350:1 17354:1 17376:1 18556:1 19026:1 19233:1 
0.282460466827455 513:1 1351:1 3175:1 5392:1 8419:1 11469:1 11531:1 11732:1 19487:1 
0.5910786502949448 1398:1 2330:1 5359:1 5563:1 6956:1 7868:1 8078:1 8419:1 8612:1 9115:1 10758:1 15434:1 17426:1 17607:1 17668:1 
0.1872342704308977 2806:1 7831:1 8998:1 9987:1 11327:1 11561:1 11731:1 11963:1 12209:1 13848:1 17607:1 18955:1 
1.125325165293801 592:1 1372:1 3826:1 4722:1 5749:1 7185:1 8302:1 8998:1 9115:1 11796:1 14731:1 15502:1 17354:1 18401:1 19477:1 
0.06345685395563889 0:1 333:1 592:1 1958:1 2015:1 2274:1 2494:1 4168:1 7679:1 8419:1 8612:1 11096:1 11731:1 11732:1 13161:1 15446:1 17607:1 19477:1 19487:1 
0.07784594801249967 0:1 41:1 2330:1 3833:1 4860:1 6240:1 7703:1 7872:1 8281:1 8302:1 8416:1 10114:1 10572:1 11810:1 13813:1 15193:1 17081:1 17350:1 17408:1 17426:1 17485:1 17607:1 18955:1 19477:1 
0.2319151624786724 1292:1 1758:1 2735:1 3301:1 6157:1 8419:1 8612:1 11963:1 15764:1 17354:1 17360:1 17408:1 17595:1 17607:1 19076:1 19455:1 19477:1 
0.4507158399060572 809:1 2442:1 6651:1 7751:1 8134:1 8419:1 11561:1 11796:1 12141:1 14472:1 17034:1 17376:1 17426:1 
0.290664887698574 0:1 1398:1 6977:1 8419:1 8612:1 9100:1 11731:1 13225:1 13869:1 14612:1 15434:1 17426:1 19155:1 
0.08327184670870814 1131:1 3034:1 4297:1 9095:1 9365:1 10767:1 13813:1 15085:1 15746:1 15896:1 17650:1 19076:1 19477:1 
0.1031606010517454 4722:1 8419:1 9115:1 11317:1 12648:1 14586:1 15896:1 16398:1 17350:1 17408:1 17607:1 18890:1 19155:1 
0.1906776625281871 1398:1 4256:1 4874:1 7283:1 8419:1 8594:1 8612:1 11881:1 15434:1 16188:1 17350:1 17354:1 18890:1 
0.1088289524522838 809:1 1225:1 1474:1 6708:1 7301:1 8302:1 9161:1 10873:1 11731:1 11796:1 11967:1 12403:1 14119:1 15896:1 17426:1 18955:1 19477:1 
0.5284198687649404 999:1 2348:1 2442:1 7352:1 11327:1 11966:1 12918:1 13813:1 14151:1 15896:1 15980:1 17426:1 17607:1 18955:1 
0.2463668728973307 451:1 2471:1 3638:1 5909:1 6954:1 8419:1 10410:1 11202:1 11967:1 15085:1 15896:1 16569:1 17081:1 17354:1 17551:1 18955:1 
0.2466271555614856 0:1 592:1 7301:1 8302:1 9095:1 9365:1 9547:1 11731:1 11798:1 11967:1 14097:1 14683:1 15980:1 17426:1 17441:1 18077:1 18854:1 19001:1 19477:1 
0.1308566722218436 2901:1 3151:1 4486:1 5224:1 5456:1 6861:1 10301:1 11207:1 11580:1 11732:1 14587:1 15980:1 
0.1038346642836808 6157:1 7654:1 8003:1 8419:1 9663:1 9865:1 11731:1 11732:1 11798:1 13749:1 14772:1 15204:1 17354:1 19487:1 
0.227321103515484 0:1 592:1 856:1 1175:1 1717:1 1914:1 1999:1 2426:1 6693:1 7891:1 8003:1 8419:1 10188:1 10567:1 11132:1 11967:1 13067:1 14305:1 17607:1 17668:1 17903:1 19032:1 
0.1162683276271203 809:1 1887:1 3925:1 5033:1 5278:1 8112:1 9115:1 9331:1 11561:1 11963:1 16016:1 16026:1 17480:1 17607:1 18955:1 19258:1 
0.01061287808360622 0:1 999:1 1022:1 1263:1 1961:1 5040:1 5166:1 6796:1 8612:1 9115:1 9365:1 10271:1 11202:1 11535:1 11731:1 13719:1 14664:1 15930:1 16375:1 17354:1 19258:1 19367:1 
0.2213043737748861 0:1 1175:1 3833:1 7301:1 7653:1 8203:1 8419:1 9365:1 13420:1 17350:1 17607:1 18401:1 18857:1 19116:1 19258:1 
0.04607509435380927 2006:1 6728:1 8612:1 9504:1 10567:1 11034:1 12771:1 17239:1 17354:1 17426:1 19034:1 19490:1 
0.06743355613343567 6708:1 8419:1 9365:1 9919:1 11202:1 15912:1 17310:1 17408:1 18258:1 
0.176664150094802 451:1 2629:1 5598:1 8419:1 8952:1 9095:1 9115:1 11058:1 11237:1 11731:1 17354:1 17408:1 
0.01818063492408909 592:1 3563:1 4342:1 7891:1 8209:1 10567:1 11731:1 13382:1 14847:1 17354:1 17376:1 18401:1 19258:1 
0.3290863498354283 511:1 2442:1 3882:1 4999:1 5017:1 5166:1 8419:1 8612:1 9130:1 9689:1 11202:1 15930:1 16388:1 17034:1 17239:1 17551:1 17607:1 18401:1 18629:1 19076:1 
0.3683841333016569 513:1 592:1 3204:1 5883:1 6708:1 7107:1 7892:1 8078:1 8419:1 9365:1 11798:1 12308:1 15985:1 16735:1 17354:1 
0.004991228977170574 451:1 900:1 1194:1 2426:1 5480:1 6751:1 6756:1 8302:1 8465:1 8612:1 9115:1 11517:1 11731:1 11881:1 11967:1 16001:1 16106:1 17607:1 18890:1 19322:1 19477:1 19487:1 
0.03933005181266205 592:1 1471:1 7451:1 8612:1 9130:1 10088:1 11531:1 11967:1 15338:1 15426:1 17349:1 17354:1 17545:1 19477:1 
0.6597226476094482 2471:1 2803:1 6336:1 7758:1 8419:1 8465:1 9130:1 9365:1 9547:1 9824:1 11202:1 11531:1 17607:1 19477:1 
0.02727076711703834 567:1 809:1 8612:1 12332:1 12811:1 16393:1 18058:1 18955:1 
0.1162150776916804 0:1 513:1 1292:1 7868:1 8419:1 8612:1 11580:1 12934:1 12960:1 15097:1 15423:1 17350:1 17426:1 18890:1 
0.07414273702485814 0:1 451:1 490:1 1475:1 3107:1 3449:1 6708:1 8612:1 9115:1 9901:1 9926:1 10802:1 11469:1 11580:1 11802:1 11836:1 11995:1 13513:1 13848:1 14731:1 16393:1 17350:1 17354:1 18401:1 18809:1 19034:1 
0.08933461168775428 1000:1 1201:1 2653:1 3853:1 7891:1 8419:1 9115:1 9365:1 10567:1 11967:1 17350:1 17544:1 18890:1 19076:1 
0.1966523036414853 1795:1 5276:1 5906:1 6157:1 7832:1 9263:1 15337:1 17354:1 18088:1 
0.1573693931496 5525:1 8612:1 9766:1 11798:1 12158:1 15980:1 17354:1 17360:1 
0.2214987805242419 809:1 8896:1 11068:1 11202:1 11802:1 12018:1 15768:1 
0.1594585168017162 0:1 4999:1 7185:1 8302:1 11580:1 11796:1 13096:1 17307:1 19477:1 
0.04014102465330174 0:1 464:1 592:1 1795:1 2430:1 7787:1 7868:1 9365:1 9496:1 9901:1 11541:1 11731:1 11967:1 12154:1 13500:1 15072:1 15995:1 17354:1 17607:1 18401:1 18827:1 19477:1 19487:1 
0.3406565976446612 1795:1 5017:1 7109:1 9263:1 10271:1 10567:1 11531:1 11798:1 
0.02659110071991201 0:1 1433:1 1464:1 3845:1 5059:1 8207:1 8419:1 9115:1 14731:1 17034:1 17354:1 19093:1 
0.03797788269081166 0:1 567:1 592:1 789:1 1693:1 5664:1 7107:1 9115:1 9365:1 10567:1 14731:1 16355:1 19258:1 
0.04049287580964313 0:1 592:1 1175:1 5129:1 7107:1 7997:1 8322:1 8612:1 11580:1 11802:1 14847:1 16490:1 16593:1 17354:1 17366:1 18401:1 18786:1 19477:1 
0.1654606378267438 1696:1 2325:1 4326:1 5236:1 7384:1 9365:1 11963:1 17603:1 18966:1 
0.1024869781356281 41:1 592:1 1407:1 2577:1 9249:1 10567:1 11649:1 11798:1 14151:1 15115:1 17034:1 17239:1 17350:1 17354:1 17607:1 19357:1 19477:1 
0.3383132956995635 0:1 451:1 492:1 592:1 1175:1 1433:1 1819:1 2330:1 2553:1 3294:1 5066:1 5140:1 5276:1 6347:1 8419:1 8612:1 10567:1 11096:1 11202:1 12231:1 12596:1 15980:1 16624:1 17034:1 17366:1 18401:1 18901:1 
0.05967858802922403 5033:1 6169:1 6985:1 7872:1 8281:1 8460:1 9115:1 11881:1 12760:1 13015:1 17350:1 17354:1 17607:1 19034:1 19062:1 19093:1 19347:1 19477:1 19491:1 
0.1266206416205395 0:1 809:1 1201:1 4372:1 7352:1 14857:1 16734:1 
0.515734183555288 3541:1 3833:1 4713:1 7758:1 8465:1 8612:1 11963:1 15276:1 17389:1 19355:1 
0.9282040952998566 592:1 1271:1 6505:1 9116:1 13776:1 15337:1 17354:1 17366:1 
3.434303986823252 4713:1 5472:1 6336:1 7679:1 8419:1 8612:1 9901:1 11096:1 11202:1 
0.235478416828069 0:1 451:1 592:1 809:1 5276:1 6248:1 8003:1 8419:1 10188:1 13169:1 13395:1 14731:1 16869:1 17376:1 17389:1 
0.02536343290549836 342:1 451:1 4092:1 6935:1 7032:1 8427:1 8849:1 11202:1 13623:1 15337:1 17354:1 
1.770588103160827 592:1 1398:1 1619:1 7348:1 8003:1 8419:1 8849:1 9365:1 10188:1 10567:1 12480:1 14877:1 17354:1 18855:1 19477:1 
0.3221143526654493 4432:1 7333:1 7703:1 7787:1 9943:1 11202:1 11731:1 11953:1 17354:1 17607:1 18401:1 18814:1 19057:1 19301:1 
0.006913874890979676 1433:1 4303:1 8419:1 9661:1 10833:1 11580:1 11731:1 11810:1 14869:1 17205:1 19026:1 
0.006879082966308724 1183:1 1270:1 2146:1 4722:1 5906:1 6923:1 7917:1 8029:1 8419:1 9036:1 16855:1 17350:1 17354:1 17607:1 18890:1 19477:1 
0.302689865160739 1464:1 3287:1 3761:1 5906:1 6505:1 7001:1 7679:1 8419:1 17354:1 17607:1 18556:1 19081:1 
2.1204093032504 333:1 451:1 4722:1 6708:1 6805:1 8285:1 8419:1 9115:1 14982:1 16939:1 17670:1 18890:1 
0.05705120527714593 592:1 1398:1 3287:1 6146:1 8419:1 9115:1 9901:1 10443:1 10758:1 11202:1 15792:1 15857:1 15991:1 17408:1 18995:1 
0.05010294297338298 8419:1 8863:1 11731:1 11732:1 12578:1 17081:1 17354:1 17682:1 17878:1 18748:1 19477:1 
0.4064070803733046 342:1 1669:1 5161:1 8419:1 8998:1 11204:1 
0.1047309570761739 299:1 513:1 8419:1 8612:1 9095:1 9837:1 10276:1 10567:1 10980:1 11810:1 16495:1 17350:1 17354:1 17405:1 17426:1 17607:1 17891:1 18855:1 
0.4494903598526333 592:1 900:1 2442:1 2701:1 5899:1 8419:1 9547:1 11768:1 14994:1 17034:1 17426:1 18065:1 18401:1 18955:1 19195:1 
0.02777651440697899 259:1 660:1 2949:1 5071:1 9115:1 11028:1 11469:1 11650:1 12012:1 17607:1 18762:1 18785:1 
0.2021972342256992 592:1 924:1 1208:1 2426:1 5257:1 8157:1 8419:1 9115:1 9432:1 11731:1 11967:1 13417:1 13501:1 15896:1 15899:1 18104:1 18890:1 19034:1 19045:1 19076:1 19081:1 19477:1 19487:1 
0.1477267881117251 0:1 411:1 999:1 6481:1 6490:1 6923:1 7185:1 7333:1 8286:1 11732:1 11963:1 14459:1 14807:1 17350:1 17354:1 17607:1 17903:1 18018:1 18955:1 19034:1 
0.1252733898305519 567:1 4999:1 7739:1 8419:1 10188:1 11531:1 11731:1 12010:1 12209:1 17607:1 18191:1 19057:1 19477:1 
0.4225690212583609 0:1 4722:1 7710:1 8142:1 8998:1 9095:1 9115:1 10058:1 16453:1 17426:1 18015:1 18997:1 19076:1 
0.4083892554012453 2442:1 7758:1 7891:1 9413:1 10567:1 11202:1 17034:1 17350:1 17527:1 17607:1 18401:1 18804:1 19111:1 19179:1 19258:1 
0.4498124040472917 333:1 689:1 2060:1 7301:1 7348:1 8419:1 9365:1 10188:1 11228:1 14618:1 18401:1 18955:1 19487:1 
0.06109691236900706 0:1 592:1 3462:1 7679:1 8054:1 10567:1 10755:1 11448:1 11796:1 12826:1 14958:1 15337:1 16453:1 17342:1 17354:1 
0.1469103227683219 682:1 1433:1 1464:1 1954:1 3292:1 3704:1 4999:1 5032:1 9115:1 9365:1 9901:1 10417:1 11354:1 11561:1 11580:1 11731:1 13848:1 14731:1 15241:1 15580:1 15896:1 17904:1 18444:1 18556:1 18955:1 19034:1 
0.1364902978890682 0:1 567:1 1795:1 6708:1 8419:1 8988:1 9263:1 9365:1 11344:1 
1.442138566092737 342:1 900:1 4282:1 7654:1 10058:1 11531:1 13813:1 19116:1 19477:1 
1.031284004176616 5059:1 7185:1 7236:1 7801:1 8419:1 11731:1 12750:1 15097:1 15714:1 15980:1 17034:1 17354:1 17607:1 18556:1 19258:1 19477:1 
0.4729418692424247 451:1 999:1 5314:1 5838:1 7301:1 7333:1 8419:1 8465:1 9403:1 10188:1 10567:1 12471:1 13669:1 13813:1 17354:1 17579:1 17607:1 17661:1 17668:1 18946:1 19477:1 
0.5643427003914215 460:1 809:1 3172:1 6208:1 7672:1 8082:1 11202:1 13848:1 17387:1 
0.3083207212726524 2330:1 5389:1 7694:1 8419:1 10188:1 11580:1 13586:1 14987:1 16453:1 17350:1 
1.638776545851817 0:1 5066:1 7868:1 8003:1 11967:1 12180:1 14731:1 17376:1 19057:1 19477:1 
0.1539320751702419 342:1 1201:1 4372:1 9130:1 9875:1 11731:1 17350:1 17551:1 18992:1 18997:1 
0.2266590013720971 1445:1 1475:1 1499:1 3353:1 5082:1 6924:1 7891:1 8099:1 8612:1 9410:1 9439:1 9766:1 10567:1 11202:1 16480:1 17366:1 17607:1 18104:1 19032:1 19324:1 
0.3147880600637165 1433:1 2439:1 4800:1 5129:1 6157:1 7301:1 8419:1 8612:1 15714:1 17354:1 17607:1 18857:1 
0.9308718063748733 1240:1 2330:1 4169:1 6923:1 7679:1 7891:1 8419:1 9115:1 11798:1 14146:1 18890:1 19057:1 
0.3969179035117351 2442:1 2821:1 4051:1 4401:1 4999:1 6946:1 9547:1 13636:1 19477:1 
0.4756460569087633 1433:1 4709:1 7188:1 7279:1 8419:1 9095:1 9115:1 9365:1 13223:1 18855:1 19490:1 
0.4156216669452582 1398:1 2868:1 4194:1 5000:1 6276:1 8419:1 10188:1 11757:1 13789:1 16037:1 17342:1 17354:1 
0.246424028747073 1596:1 2173:1 2354:1 3833:1 8029:1 8419:1 8730:1 10203:1 13757:1 14863:1 17239:1 17350:1 17354:1 19034:1 19477:1 
0.02796793937202282 592:1 1398:1 2442:1 4115:1 5999:1 8003:1 8612:1 10278:1 11580:1 16495:1 19477:1 
0.8996550168251604 0:1 2471:1 8612:1 9410:1 9901:1 10023:1 14097:1 17086:1 17350:1 18401:1 19477:1 
0.0781113398996738 4785:1 7737:1 8612:1 8956:1 9263:1 11028:1 13634:1 15094:1 17342:1 17354:1 19034:1 19477:1 
0.02406806015652708 0:1 1229:1 1270:1 1503:1 4999:1 6708:1 7352:1 7489:1 9826:1 14881:1 17348:1 17408:1 18024:1 19057:1 19477:1 
0.1694068269164042 17:1 900:1 5186:1 6505:1 7997:1 9104:1 9137:1 9922:1 15097:1 17354:1 17426:1 17551:1 
0.1295778240387211 923:1 1423:1 2442:1 4999:1 5140:1 7917:1 8302:1 8419:1 8465:1 9115:1 10567:1 11349:1 17056:1 17354:1 
1.218979134774172 451:1 1954:1 2471:1 4999:1 6120:1 6157:1 7301:1 7868:1 8157:1 8419:1 9115:1 9365:1 9901:1 11155:1 11202:1 12012:1 12158:1 14731:1 16350:1 17389:1 17426:1 19477:1 
0.4824109798521405 592:1 3129:1 5140:1 6456:1 8419:1 8849:1 10867:1 11833:1 11967:1 12238:1 17354:1 18401:1 18820:1 19477:1 
0.2060376818521793 809:1 1442:1 7774:1 11035:1 14061:1 16796:1 17387:1 17668:1 
0.2548804751637882 809:1 4882:1 8612:1 10366:1 17354:1 17376:1 19155:1 
1.307153559942588 333:1 592:1 2426:1 7758:1 7891:1 8134:1 8419:1 8849:1 10217:1 10567:1 13042:1 13097:1 17034:1 17350:1 18444:1 18901:1 
0.4253698250336196 809:1 2065:1 10379:1 14731:1 17350:1 17376:1 19155:1 
0.9170502698928836 5059:1 5480:1 8419:1 9115:1 9901:1 11531:1 12158:1 13813:1 14731:1 15085:1 15896:1 17034:1 18420:1 18969:1 19034:1 19155:1 19477:1 
1.129918225359894 6897:1 8419:1 10867:1 18723:1 19333:1 
0.0668266998509091 1398:1 3175:1 8409:1 9547:1 10301:1 11202:1 14731:1 19477:1 
0.1969336364920125 539:1 567:1 1271:1 1398:1 3591:1 8419:1 10359:1 14731:1 15205:1 16453:1 17607:1 17668:1 18556:1 19277:1 
0.007960460471577618 0:1 592:1 772:1 1045:1 8419:1 12254:1 17350:1 17426:1 17607:1 18027:1 18127:1 18890:1 
2.512743682073294 451:1 1076:1 5059:1 5721:1 6708:1 7868:1 8141:1 8419:1 17034:1 17387:1 
0.2825981012818747 679:1 3908:1 4999:1 7907:1 11209:1 11802:1 13646:1 14061:1 14442:1 17342:1 
0.2322273084049651 1847:1 4999:1 6322:1 7288:1 7868:1 8419:1 11202:1 12323:1 16812:1 17607:1 19155:1 
0.1386903203194293 1208:1 3292:1 5094:1 5906:1 7868:1 8419:1 11058:1 11731:1 11796:1 15714:1 17350:1 17354:1 18890:1 
0.05845872072902816 0:1 1587:1 7333:1 7737:1 8218:1 9095:1 10872:1 11426:1 11731:1 15061:1 15773:1 19487:1 
0.2778435712493081 1525:1 2657:1 5072:1 8143:1 11327:1 16495:1 17350:1 17607:1 18444:1 18955:1 
0.06298722188657524 342:1 592:1 2426:1 2718:1 7891:1 8612:1 9365:1 9766:1 16520:1 17354:1 
1.121149701716238 342:1 474:1 11383:1 11580:1 14731:1 15337:1 17607:1 18015:1 
0.339115550612559 0:1 1475:1 5389:1 6938:1 7352:1 8078:1 9115:1 9365:1 9901:1 14731:1 15428:1 15815:1 15896:1 17155:1 17239:1 17366:1 17607:1 
0.5017534531820691 0:1 427:1 1834:1 2467:1 6977:1 6985:1 9115:1 9972:1 10001:1 11731:1 17376:1 18890:1 
0.5858694092096874 0:1 5389:1 5749:1 7352:1 8419:1 9181:1 11327:1 11531:1 11561:1 11631:1 11731:1 13864:1 14472:1 17426:1 17607:1 
0.174932757489264 999:1 3833:1 6157:1 7770:1 11202:1 11458:1 11469:1 11731:1 11798:1 11967:1 12735:1 12801:1 15085:1 15502:1 17072:1 17350:1 17354:1 18890:1 
0.09532963424075945 451:1 2442:1 4198:1 6708:1 6924:1 7312:1 8419:1 8612:1 9130:1 11202:1 11731:1 11757:1 12193:1 14731:1 16029:1 17034:1 17354:1 17387:1 17485:1 17607:1 18401:1 18804:1 19000:1 
0.4400934856199568 1968:1 8291:1 9983:1 10359:1 15896:1 17551:1 
0.02666337709344086 0:1 592:1 900:1 4584:1 8250:1 8419:1 9115:1 10898:1 11291:1 11731:1 13552:1 15394:1 17716:1 18112:1 19258:1 19355:1 
0.3454656238575323 1616:1 1821:1 5059:1 5899:1 8419:1 9115:1 9365:1 9660:1 9814:1 11426:1 11798:1 14146:1 14731:1 16123:1 17034:1 19299:1 
0.02572146134282643 0:1 1145:1 2498:1 4308:1 8419:1 8612:1 10018:1 10033:1 11202:1 11531:1 11617:1 11731:1 15173:1 16869:1 
0.7822721658922059 4999:1 5180:1 7191:1 8612:1 9410:1 9619:1 11202:1 19155:1 19477:1 
0.5306365708305391 1366:1 1398:1 2330:1 6708:1 9115:1 9901:1 9995:1 10358:1 17354:1 
0.009600407539582155 2772:1 7185:1 7891:1 8054:1 9901:1 10074:1 11028:1 13809:1 17354:1 18955:1 
0.2600854407572211 0:1 333:1 342:1 1162:1 1475:1 1645:1 2442:1 3216:1 7185:1 7301:1 8419:1 9365:1 11004:1 11327:1 11796:1 11967:1 12904:1 15661:1 15896:1 17426:1 17607:1 18561:1 18955:1 
0.04341342308423973 722:1 1445:1 3359:1 6843:1 7390:1 7654:1 7868:1 8302:1 8612:1 14731:1 17376:1 17464:1 17551:1 19034:1 19258:1 19347:1 19477:1 
0.1406725526248696 2307:1 10247:1 13813:1 15131:1 15745:1 17354:1 17482:1 18955:1 19487:1 
0.09332674183073394 3065:1 3743:1 5244:1 7720:1 8612:1 9115:1 9130:1 9365:1 10586:1 11531:1 13496:1 16453:1 17354:1 17607:1 17903:1 18401:1 19258:1 19331:1 
0.832892053613683 0:1 1619:1 1829:1 7679:1 8419:1 10058:1 13251:1 13844:1 17366:1 18401:1 19026:1 19076:1 19284:1 
0.0006053349556127616 1112:1 1429:1 5129:1 8354:1 9968:1 10372:1 11782:1 11833:1 16001:1 17354:1 17541:1 17693:1 18955:1 19258:1 
0.04842679418328484 365:1 6461:1 6708:1 6954:1 8419:1 9365:1 9660:1 9824:1 10567:1 11426:1 13569:1 14147:1 14943:1 15956:1 17607:1 19477:1 
2.290600483434968 592:1 809:1 2060:1 3287:1 4878:1 4999:1 7348:1 8465:1 11202:1 12012:1 15896:1 16453:1 17426:1 18401:1 18955:1 19477:1 
0.0897045946863534 41:1 697:1 1499:1 1801:1 2241:1 3774:1 5059:1 6478:1 7787:1 8078:1 8099:1 8302:1 8316:1 8419:1 9115:1 9547:1 10837:1 11402:1 11731:1 11798:1 17034:1 17096:1 17354:1 18890:1 18955:1 19034:1 
2.897604001592583 0:1 999:1 1795:1 6208:1 7333:1 8078:1 8419:1 8612:1 9263:1 10114:1 10188:1 10271:1 10567:1 11798:1 17551:1 17607:1 19258:1 
0.2143747760924854 2572:1 4722:1 8355:1 8612:1 11202:1 12640:1 13588:1 19155:1 19477:1 
0.1201887856894771 2597:1 2924:1 4999:1 5016:1 6461:1 7997:1 8612:1 9115:1 9365:1 9432:1 9510:1 10966:1 11096:1 11768:1 14731:1 14880:1 15337:1 15896:1 16442:1 17607:1 17975:1 18890:1 19057:1 19093:1 
0.540206935164906 9365:1 9824:1 10198:1 10567:1 14459:1 17034:1 17354:1 18077:1 18898:1 19155:1 19357:1 
0.1069681887851821 1484:1 2442:1 7301:1 7917:1 8419:1 9987:1 10567:1 11202:1 11531:1 11967:1 17607:1 17661:1 
1.529771296121123 592:1 2442:1 6018:1 6958:1 7185:1 7489:1 7737:1 8134:1 9115:1 9365:1 10061:1 11517:1 11796:1 14731:1 15085:1 17354:1 17360:1 17389:1 18401:1 19129:1 
0.2358021751244107 511:1 2442:1 8419:1 9410:1 10307:1 10567:1 11998:1 15337:1 17034:1 17607:1 18401:1 
0.4070799082622441 8108:1 8419:1 11768:1 12308:1 13334:1 16495:1 16594:1 17607:1 19477:1 
1.002676525272107 2006:1 4999:1 7109:1 8419:1 10567:1 16518:1 17354:1 17719:1 18946:1 19249:1 
0.3390033593644154 2862:1 6708:1 7758:1 8134:1 8998:1 9115:1 10567:1 11202:1 13171:1 16188:1 17243:1 17607:1 18401:1 19034:1 19477:1 
0.2961429650537858 5276:1 6134:1 7384:1 8419:1 8612:1 9655:1 11202:1 17408:1 
0.1387133621744538 999:1 2589:1 5617:1 5909:1 17573:1 19116:1 19477:1 
0.2030095682662137 1587:1 5016:1 7301:1 11881:1 13971:1 18641:1 19116:1 19220:1 19258:1 
0.344040044097885 1591:1 2442:1 3049:1 7241:1 7892:1 8078:1 8419:1 8612:1 14925:1 17607:1 17975:1 19034:1 19076:1 
0.139540286937847 490:1 592:1 1307:1 2296:1 4455:1 7868:1 7891:1 8419:1 9130:1 11509:1 15050:1 17470:1 18401:1 
0.4496344076333311 592:1 3093:1 3287:1 7010:1 7997:1 8003:1 8302:1 8419:1 9095:1 9115:1 9959:1 10567:1 17239:1 17366:1 17408:1 17607:1 18855:1 19477:1 
0.2476640148046689 449:1 999:1 6954:1 7868:1 8419:1 9410:1 9751:1 11731:1 11798:1 14619:1 17354:1 17426:1 17607:1 17768:1 19026:1 19443:1 19487:1 
0.1737774745757494 592:1 809:1 2516:1 5072:1 5276:1 8053:1 8302:1 8419:1 10586:1 10897:1 16244:1 19477:1 
0.6264710490333998 592:1 999:1 1591:1 3175:1 5059:1 7248:1 7868:1 8419:1 10188:1 11084:1 15616:1 17034:1 17607:1 17650:1 19324:1 
3.227729299737585 8612:1 9095:1 10811:1 11096:1 11202:1 11531:1 11580:1 16184:1 16453:1 17354:1 
0.2160313733649423 0:1 592:1 3060:1 6469:1 7241:1 7737:1 8419:1 9263:1 10013:1 10567:1 17123:1 17607:1 17627:1 18855:1 19477:1 19487:1 
0.3732021250406252 0:1 567:1 592:1 999:1 1696:1 2326:1 5775:1 8321:1 8419:1 9115:1 9901:1 11211:1 11731:1 11798:1 16340:1 17226:1 17376:1 18890:1 19006:1 19116:1 
0.151940082825928 592:1 4198:1 6449:1 7260:1 7333:1 11202:1 11963:1 11967:1 13731:1 14068:1 14983:1 15423:1 17607:1 18955:1 19477:1 
0.1299069754070196 3287:1 6708:1 7063:1 7542:1 9365:1 11796:1 12012:1 13048:1 13813:1 16501:1 17354:1 18955:1 19442:1 
0.3203019860627078 0:1 2173:1 6338:1 7597:1 7790:1 7868:1 8419:1 8612:1 9095:1 11754:1 12890:1 15368:1 16971:1 17350:1 17354:1 17426:1 18969:1 19487:1 
0.05028390401941427 0:1 5129:1 7891:1 8302:1 9115:1 10567:1 11525:1 11796:1 12789:1 17239:1 19032:1 19258:1 19477:1 
0.1679219276843102 1201:1 1398:1 2028:1 2442:1 2449:1 7775:1 8419:1 9115:1 10758:1 17034:1 17408:1 17426:1 
0.5283531799873512 0:1 6461:1 7194:1 7832:1 7891:1 8078:1 8419:1 8465:1 9995:1 10567:1 11810:1 12601:1 15896:1 17661:1 18401:1 19026:1 
0.1117299324042453 0:1 839:1 999:1 1211:1 3024:1 6347:1 9365:1 11732:1 11789:1 13393:1 19292:1 
0.4164881424736887 0:1 2442:1 2982:1 5154:1 8419:1 9115:1 9365:1 9901:1 11327:1 11731:1 11953:1 12405:1 12760:1 14731:1 16495:1 16734:1 17034:1 17084:1 17198:1 17354:1 17572:1 17607:1 19477:1 
0.4207397873585712 0:1 592:1 2769:1 5033:1 6458:1 6708:1 7972:1 11469:1 13579:1 13813:1 15093:1 17389:1 17749:1 18419:1 18809:1 
0.02649782993891153 6923:1 7868:1 7872:1 8088:1 8419:1 9792:1 10188:1 11202:1 11754:1 13252:1 16233:1 16353:1 17607:1 17668:1 
0.7168625968761854 756:1 999:1 1587:1 7241:1 7892:1 8099:1 9115:1 9751:1 9995:1 10069:1 17227:1 17426:1 17441:1 18890:1 18946:1 19268:1 19477:1 
0.106305127421569 0:1 3478:1 8612:1 9115:1 9901:1 18890:1 19521:1 
0.4678590902681113 592:1 3301:1 6708:1 8419:1 8612:1 8998:1 10188:1 11202:1 11967:1 12709:1 13571:1 15823:1 16037:1 17607:1 17975:1 19324:1 19477:1 19487:1 
0.03868181765231575 41:1 3147:1 3867:1 6923:1 7035:1 7891:1 8692:1 11731:1 14731:1 16222:1 
0.08046087498953172 1355:1 8269:1 8419:1 9365:1 9689:1 11202:1 
0.1334405117139164 2354:1 3235:1 5129:1 7333:1 8419:1 11028:1 11796:1 17039:1 17354:1 17850:1 18890:1 19093:1 19477:1 
0.5946794446439295 1475:1 6805:1 6954:1 7770:1 8419:1 8439:1 9115:1 9496:1 9901:1 10188:1 11580:1 11967:1 17555:1 17607:1 17670:1 18444:1 19477:1 
0.520278501630413 900:1 3982:1 4607:1 6142:1 7868:1 8029:1 8419:1 11202:1 11796:1 16056:1 16453:1 17426:1 19487:1 
0.3177776446620474 49:1 3175:1 7565:1 7807:1 10276:1 17354:1 
1.070502930784276 999:1 1251:1 1457:1 7679:1 9115:1 9365:1 9753:1 9824:1 11202:1 14731:1 16463:1 17350:1 
0.3382796670573678 4194:1 5188:1 6336:1 8419:1 9901:1 11202:1 11494:1 11731:1 14982:1 15762:1 17354:1 17362:1 17607:1 18946:1 
0.08901625812611909 5918:1 6964:1 9095:1 10539:1 17354:1 17376:1 19057:1 
0.1954971558001326 0:1 592:1 5913:1 7185:1 7868:1 9365:1 11796:1 12104:1 13247:1 14807:1 15434:1 17354:1 17468:1 18955:1 
0.3451622310087208 592:1 924:1 1372:1 2426:1 5208:1 6708:1 7891:1 8099:1 8612:1 9670:1 9766:1 10838:1 11580:1 11967:1 13972:1 17354:1 17670:1 19045:1 
0.125306286489317 0:1 3944:1 4724:1 4999:1 8419:1 9115:1 9365:1 9547:1 9972:1 10404:1 11731:1 14847:1 15633:1 15896:1 17354:1 17376:1 17607:1 18890:1 19057:1 19258:1 
0.2445816326210506 2737:1 6738:1 8637:1 9875:1 10301:1 11202:1 11580:1 11731:1 17441:1 
0.3943291093431188 2545:1 5913:1 8206:1 8419:1 8612:1 9115:1 9547:1 10748:1 11748:1 14731:1 14932:1 18401:1 18556:1 19258:1 
0.6312846495624954 6742:1 7868:1 8419:1 9792:1 10276:1 10567:1 17277:1 
4 4198:1 5129:1 7301:1 8419:1 9095:1 9115:1 10567:1 11796:1 17350:1 17607:1 18855:1 19019:1 19487:1 
0.00109969025544582 592:1 999:1 4374:1 5019:1 5033:1 5143:1 11202:1 11732:1 13499:1 14807:1 17354:1 17551:1 19034:1 19477:1 
0.4286947531007025 0:1 592:1 7333:1 7741:1 8003:1 10567:1 11099:1 11327:1 13813:1 14643:1 14772:1 15337:1 17350:1 17426:1 17607:1 19477:1 
0.4970486335109612 451:1 592:1 999:1 6336:1 7312:1 8419:1 9682:1 9901:1 10567:1 11426:1 12824:1 14847:1 17376:1 
0.2433589042516695 567:1 592:1 1464:1 5059:1 5628:1 7185:1 8419:1 9115:1 9432:1 9995:1 10838:1 11580:1 11830:1 11967:1 12314:1 14880:1 16149:1 17034:1 17607:1 17975:1 18556:1 19331:1 19345:1 19477:1 
0.3156140852034692 592:1 3301:1 6157:1 8114:1 8612:1 10567:1 13848:1 15908:1 17274:1 17354:1 18358:1 18401:1 18835:1 19211:1 
0.08594120381488127 1587:1 4787:1 5189:1 5276:1 8612:1 9095:1 9098:1 9115:1 11508:1 16056:1 16074:1 17342:1 17449:1 18162:1 
0.05721209986835583 0:1 845:1 5993:1 8998:1 9308:1 10301:1 11731:1 11757:1 16609:1 17354:1 
0.07220110973928788 1292:1 2172:1 6708:1 7028:1 8612:1 10579:1 11767:1 12593:1 14006:1 14597:1 15896:1 
0.315002673595541 490:1 2330:1 4194:1 6958:1 7333:1 7868:1 8078:1 8419:1 9044:1 10359:1 10567:1 12404:1 14731:1 17376:1 17668:1 19129:1 
0.9789236837412048 1847:1 5019:1 5033:1 11732:1 13813:1 15431:1 17081:1 17354:1 17389:1 17551:1 19487:1 
0.1783902947195344 333:1 739:1 1399:1 5899:1 9115:1 11796:1 13324:1 16056:1 16453:1 17354:1 18748:1 18930:1 
0.030210063609589 7287:1 8419:1 9660:1 10838:1 11796:1 14667:1 16149:1 16447:1 17261:1 17354:1 18556:1 18835:1 
0.1394066567933903 1445:1 2920:1 4999:1 7352:1 8267:1 8612:1 9875:1 11202:1 14731:1 14807:1 18046:1 18230:1 18767:1 18946:1 19129:1 19155:1 
0.4768019265896198 0:1 1464:1 1749:1 7868:1 8612:1 9901:1 12393:1 13588:1 13813:1 17350:1 17389:1 
2.81955143287876 679:1 809:1 1795:1 5033:1 6276:1 9817:1 15580:1 15896:1 16350:1 19477:1 
1.617849805341203 0:1 592:1 5198:1 6708:1 7640:1 9095:1 9115:1 10971:1 11426:1 14731:1 16735:1 17426:1 17551:1 18997:1 
0.5490406936546901 86:1 513:1 6954:1 7640:1 7997:1 8419:1 11096:1 11731:1 11967:1 14472:1 17354:1 
0.7623501395485056 722:1 3007:1 5059:1 9901:1 12956:1 15136:1 17034:1 17350:1 
0.334602786996806 342:1 999:1 5749:1 5906:1 7151:1 7868:1 8419:1 8612:1 9875:1 10285:1 11028:1 11202:1 12230:1 15085:1 15097:1 17342:1 17426:1 17607:1 17661:1 18855:1 
0.7857121059682295 0:1 1795:1 1999:1 4595:1 7352:1 7891:1 8022:1 
0.2244580749793264 0:1 4999:1 9115:1 9422:1 9477:1 9547:1 10579:1 11731:1 11858:1 14731:1 15978:1 17354:1 19057:1 19477:1 
0.5063439933964868 1201:1 9115:1 9547:1 11327:1 11830:1 14028:1 14731:1 16800:1 17354:1 17607:1 19076:1 19477:1 
0.2060859767177832 494:1 999:1 1959:1 2730:1 2797:1 5212:1 6472:1 8302:1 8624:1 9115:1 9365:1 10074:1 11731:1 11953:1 13844:1 16496:1 17607:1 
0.1068948159116249 0:1 567:1 900:1 3845:1 3860:1 4040:1 7384:1 7412:1 8419:1 8465:1 9010:1 11202:1 11731:1 17366:1 17441:1 17661:1 19442:1 19477:1 
0.4421139098461359 2330:1 4999:1 8419:1 9102:1 9901:1 10188:1 11202:1 11570:1 12564:1 12605:1 13169:1 16869:1 17034:1 17387:1 17426:1 
0.1007054056941358 333:1 413:1 999:1 1503:1 7191:1 7352:1 8302:1 8419:1 9115:1 9272:1 10188:1 11796:1 13285:1 14731:1 17504:1 18830:1 18993:1 19324:1 
0.0975247554514022 2470:1 2605:1 4643:1 5059:1 5721:1 6272:1 11070:1 13495:1 17034:1 17441:1 17607:1 17840:1 19324:1 
1.909004160500983 567:1 592:1 999:1 7801:1 8134:1 9058:1 9115:1 9144:1 11732:1 14731:1 14807:1 17354:1 17551:1 17607:1 17668:1 
0.5289141360721137 245:1 592:1 1954:1 2330:1 3287:1 3836:1 5072:1 7891:1 8419:1 9115:1 9410:1 9529:1 11967:1 14877:1 16887:1 17389:1 18401:1 18459:1 18890:1 18955:1 
1.800594035103747 451:1 592:1 939:1 999:1 6455:1 6525:1 6708:1 8587:1 9130:1 10567:1 11138:1 11202:1 14807:1 15991:1 17350:1 17354:1 17551:1 17593:1 17607:1 17682:1 
0.5587306194054398 43:1 809:1 1398:1 7801:1 8769:1 9115:1 14731:1 17354:1 17607:1 19076:1 19477:1 
2.688339194438028 522:1 1587:1 6341:1 8302:1 8612:1 9115:1 11132:1 11797:1 11798:1 13588:1 14731:1 15991:1 18494:1 19477:1 19487:1 
1.947316563574889 592:1 1398:1 4194:1 8419:1 9365:1 9901:1 11797:1 14472:1 14807:1 17354:1 17405:1 17607:1 17686:1 
0.01360462164087397 1616:1 2330:1 2442:1 2855:1 6954:1 7565:1 7691:1 8419:1 11202:1 11531:1 11796:1 17354:1 17625:1 19155:1 
0.133284141282816 188:1 809:1 2409:1 4999:1 5059:1 8419:1 9115:1 10188:1 11802:1 11810:1 12404:1 13169:1 15252:1 16869:1 17034:1 17354:1 19129:1 
0.7495551509280688 0:1 809:1 3440:1 7312:1 7801:1 11561:1 11757:1 12124:1 14472:1 16734:1 
0.2154908026504467 0:1 689:1 5066:1 6700:1 7868:1 11358:1 11580:1 12205:1 19057:1 19258:1 19355:1 19477:1 
0.1097892431324603 174:1 10104:1 12158:1 16106:1 17342:1 
0.02551004845899979 41:1 1958:1 2330:1 2354:1 4101:1 5059:1 6336:1 7713:1 8302:1 8419:1 8612:1 9115:1 9901:1 11580:1 11582:1 13588:1 14731:1 15896:1 17034:1 17350:1 17354:1 17408:1 19335:1 19341:1 
0.406220609231346 592:1 1993:1 4130:1 9115:1 9824:1 9901:1 10074:1 11582:1 11731:1 13588:1 14731:1 17350:1 17354:1 17426:1 18946:1 19220:1 
0.4448561521517243 1464:1 2442:1 4305:1 5033:1 6708:1 8419:1 11096:1 11580:1 12251:1 15085:1 16572:1 17034:1 17354:1 17607:1 18556:1 18804:1 19477:1 
0.5289568944728089 0:1 41:1 4066:1 5066:1 7384:1 7801:1 8419:1 8508:1 9365:1 17413:1 19366:1 
0.6633761340340637 148:1 1616:1 6336:1 8419:1 9901:1 11798:1 11963:1 14097:1 17914:1 18890:1 19133:1 
0.03625909708487432 6000:1 9130:1 11327:1 11580:1 12723:1 12975:1 17426:1 17607:1 18955:1 
0.02547100348770102 1251:1 6923:1 7679:1 7997:1 8419:1 8612:1 9115:1 10448:1 11096:1 11202:1 11796:1 12988:1 14281:1 15337:1 15896:1 17354:1 17408:1 18890:1 
0.4261278373146409 0:1 27:1 1398:1 2330:1 2442:1 4089:1 4090:1 5017:1 5734:1 8419:1 10567:1 10572:1 10758:1 11531:1 17034:1 17350:1 17607:1 
2.691224486645718 5059:1 5389:1 7891:1 8078:1 8419:1 13247:1 17034:1 17155:1 17290:1 17607:1 18855:1 
0.5295771076075005 900:1 1251:1 1507:1 2336:1 3685:1 4618:1 5386:1 7191:1 9095:1 9115:1 11531:1 11732:1 12327:1 16056:1 19487:1 
0.2949092235816911 0:1 41:1 5906:1 6057:1 6708:1 7679:1 8419:1 8849:1 9115:1 9458:1 10217:1 10831:1 11058:1 11580:1 11731:1 11967:1 15244:1 15720:1 16762:1 17354:1 18556:1 18890:1 18955:1 
1.027538427892529 4279:1 6505:1 8327:1 14254:1 17350:1 18199:1 
0.1010474756221499 0:1 5601:1 7352:1 9901:1 10359:1 11541:1 14687:1 15250:1 17668:1 
1.423340466357076 1251:1 4999:1 7868:1 9901:1 10074:1 11202:1 11796:1 14720:1 17362:1 19057:1 19155:1 
0.4989003317197845 451:1 483:1 592:1 924:1 6963:1 7654:1 8003:1 8419:1 8465:1 8508:1 8612:1 9115:1 9713:1 11561:1 15146:1 16735:1 17354:1 18890:1 18946:1 
0.4223710590229825 1251:1 1398:1 1808:1 3835:1 6879:1 7241:1 7912:1 10567:1 17034:1 17350:1 17354:1 19477:1 
0.4347381804698718 0:1 1441:1 1475:1 2442:1 3860:1 7653:1 7868:1 8302:1 9115:1 10359:1 11580:1 11731:1 14097:1 14807:1 15980:1 16038:1 17354:1 17466:1 17555:1 18946:1 18997:1 19258:1 
0.2221981848706421 1944:1 2330:1 4285:1 6505:1 6954:1 7188:1 7785:1 8419:1 8465:1 10271:1 11202:1 11767:1 16000:1 17426:1 17607:1 19487:1 
0.02359042326833764 1175:1 1711:1 2060:1 3301:1 5916:1 8465:1 8612:1 9095:1 10278:1 10567:1 11967:1 15522:1 18401:1 18955:1 19258:1 
0.593201431160466 6232:1 7241:1 7892:1 8612:1 10567:1 12741:1 15434:1 19258:1 19477:1 
0.9130106119726162 0:1 3290:1 5909:1 9586:1 12086:1 12430:1 18878:1 19258:1 
3.000800437896571 451:1 592:1 1696:1 1746:1 5129:1 6461:1 7679:1 7737:1 7891:1 8099:1 8419:1 9115:1 11202:1 12158:1 14146:1 14731:1 16740:1 17366:1 18372:1 
0.1540847367708846 511:1 1464:1 4999:1 8419:1 10135:1 10567:1 17426:1 17607:1 18556:1 18723:1 19155:1 19355:1 
0.4218489502083596 0:1 1881:1 6049:1 8419:1 10242:1 11731:1 17034:1 17426:1 18901:1 
0.5044604938715667 7666:1 9901:1 10065:1 17155:1 17426:1 
0.1393171624064408 451:1 809:1 1585:1 3895:1 8029:1 8267:1 8465:1 9052:1 11732:1 17366:1 19026:1 
0.4579791062376191 592:1 1661:1 4421:1 4999:1 8419:1 8612:1 9115:1 11202:1 13848:1 17607:1 18857:1 18890:1 
0.2783029775621622 614:1 1398:1 1804:1 6385:1 6923:1 6977:1 7010:1 7684:1 9115:1 12932:1 17426:1 17607:1 19032:1 19195:1 
0.05928034689823915 553:1 3048:1 3287:1 6692:1 6708:1 7246:1 7892:1 8419:1 8612:1 10188:1 10741:1 11967:1 12241:1 13843:1 15623:1 15749:1 17551:1 17607:1 18556:1 18809:1 19076:1 19331:1 
0.7516835453998744 6745:1 7868:1 8419:1 9410:1 11530:1 11810:1 17350:1 18058:1 
0.1179574116912898 513:1 999:1 2354:1 6281:1 6449:1 7868:1 7872:1 8419:1 8465:1 9464:1 9751:1 9995:1 11580:1 14807:1 17354:1 18048:1 19026:1 
0.2920632136900234 567:1 592:1 999:1 3301:1 4040:1 5652:1 6708:1 7058:1 7191:1 7703:1 8281:1 8612:1 9453:1 9901:1 14472:1 15913:1 17350:1 17354:1 17366:1 18890:1 18916:1 
0.02100281849350143 0:1 343:1 427:1 1398:1 3997:1 5129:1 6861:1 8337:1 8419:1 9115:1 10572:1 14731:1 17607:1 18015:1 19355:1 
0.2777513498229227 0:1 571:1 1342:1 1464:1 1475:1 7191:1 7352:1 8440:1 8612:1 14374:1 15050:1 17607:1 19359:1 
0.01571321671530186 1509:1 2471:1 4297:1 5909:1 6341:1 8419:1 9901:1 9924:1 10042:1 17426:1 
0.4274701656337227 326:1 2330:1 7787:1 8419:1 9660:1 10188:1 10567:1 11202:1 11426:1 11531:1 11731:1 15096:1 16869:1 18022:1 19057:1 
0.3759788963492123 0:1 1499:1 1587:1 2241:1 2330:1 6336:1 7241:1 7749:1 8419:1 10188:1 10758:1 11980:1 14881:1 17342:1 17426:1 19477:1 
0.7568085247024043 2426:1 2471:1 9060:1 9264:1 9365:1 10114:1 11202:1 11796:1 16435:1 17426:1 17716:1 
0.3992047336599641 1201:1 1398:1 1929:1 7275:1 7832:1 8221:1 12754:1 14459:1 15896:1 15980:1 17034:1 17350:1 17354:1 17443:1 19295:1 
0.247188329057904 421:1 567:1 1616:1 8998:1 9115:1 9362:1 10324:1 11202:1 12976:1 13636:1 15896:1 17083:1 17350:1 
0.4130993614437677 0:1 1375:1 1398:1 4194:1 6424:1 7301:1 7703:1 8419:1 8612:1 11731:1 11798:1 14731:1 16272:1 17354:1 17376:1 17607:1 19477:1 
0.1301970455353973 0:1 592:1 5202:1 7185:1 7348:1 7659:1 8267:1 8419:1 9115:1 9824:1 10188:1 10643:1 13588:1 14731:1 15337:1 16495:1 17350:1 17426:1 18946:1 
0.3744110762372302 592:1 1135:1 1398:1 3833:1 5688:1 6512:1 6954:1 7147:1 7336:1 7868:1 8419:1 8465:1 8612:1 9115:1 9901:1 10309:1 10310:1 11202:1 11731:1 11798:1 13848:1 14944:1 15633:1 15896:1 17354:1 17408:1 17571:1 17607:1 19355:1 19442:1 
1.033196409799576 999:1 1398:1 2426:1 3833:1 5616:1 6272:1 7868:1 7891:1 9252:1 9273:1 15896:1 
0.4419423241970388 687:1 1587:1 3833:1 5110:1 6336:1 8419:1 8465:1 8612:1 9115:1 10276:1 16901:1 18463:1 19477:1 19487:1 
0.0676647417947933 451:1 592:1 1445:1 2354:1 2869:1 6157:1 6469:1 7679:1 8419:1 8612:1 9436:1 9897:1 11202:1 11796:1 11967:1 12012:1 12238:1 16037:1 17354:1 17408:1 17426:1 17551:1 19258:1 
0.1741395733537406 687:1 1135:1 1350:1 5236:1 8612:1 9365:1 10276:1 11096:1 14731:1 17350:1 19487:1 
0.2210118605672807 451:1 1133:1 2330:1 2553:1 6708:1 7185:1 8029:1 8188:1 8419:1 9824:1 10188:1 11531:1 14731:1 
0.01780346506357656 592:1 7766:1 9115:1 11967:1 14146:1 17661:1 18854:1 
0.2278543430598124 0:1 2981:1 5899:1 7352:1 7679:1 9115:1 11349:1 15896:1 17354:1 18890:1 
0.2436225774542629 1113:1 1503:1 1531:1 6708:1 8419:1 9095:1 11204:1 11796:1 13191:1 15991:1 17426:1 
0.2747835719379084 284:1 592:1 923:1 999:1 4999:1 6708:1 7348:1 8419:1 8508:1 11732:1 14807:1 15313:1 15896:1 17354:1 17650:1 18997:1 19324:1 19477:1 
0.4621080177502956 900:1 1538:1 3833:1 4723:1 6157:1 7997:1 8302:1 9526:1 10567:1 11132:1 13658:1 15337:1 15452:1 16746:1 17034:1 17625:1 17716:1 19076:1 19268:1 19345:1 
0.2939463834565671 3392:1 4999:1 6708:1 7868:1 8419:1 8486:1 11731:1 15991:1 17350:1 17426:1 17444:1 17607:1 17963:1 18444:1 19000:1 19477:1 
0.1709797316759541 1684:1 2855:1 3287:1 7691:1 11202:1 11731:1 11967:1 14916:1 18000:1 
0.04759544430524323 6708:1 9115:1 12657:1 12884:1 13813:1 14731:1 17039:1 17354:1 17389:1 18457:1 19019:1 
0.3637083685746619 3824:1 4741:1 5059:1 7241:1 7892:1 8302:1 9095:1 9115:1 11096:1 17034:1 17607:1 18191:1 19258:1 19477:1 
0.1335616475045107 0:1 592:1 1464:1 1534:1 4081:1 5389:1 7869:1 8053:1 8419:1 8612:1 9226:1 17034:1 19076:1 19093:1 19477:1 
0.1910467218687788 0:1 1398:1 1962:1 5276:1 6455:1 6896:1 7801:1 9115:1 10801:1 11034:1 11531:1 11796:1 15434:1 17426:1 17607:1 
0.4817089171153952 1162:1 2442:1 3217:1 6708:1 7185:1 7586:1 8419:1 10188:1 11967:1 13832:1 15896:1 17426:1 17607:1 
0.6643657884335071 856:1 2706:1 7997:1 8277:1 9115:1 9901:1 14731:1 15283:1 17354:1 17516:1 
2.096534372134603 2154:1 8612:1 9115:1 11096:1 13588:1 14688:1 17350:1 19026:1 19076:1 19477:1 19487:1 
0.6011093980244959 1445:1 5899:1 7352:1 7891:1 8361:1 8612:1 9095:1 13848:1 17443:1 
0.2367922867214158 567:1 3301:1 3327:1 5652:1 9095:1 10061:1 10094:1 11202:1 12012:1 14097:1 17607:1 
0.17817217192442 1629:1 4999:1 5059:1 10572:1 13088:1 17034:1 18944:1 19057:1 19477:1 19487:1 
0.1765240365805482 2992:1 6888:1 6977:1 7428:1 8419:1 9365:1 11796:1 13602:1 16219:1 17354:1 18752:1 19081:1 19443:1 
0.6728255739519975 0:1 5017:1 7891:1 10840:1 11327:1 11334:1 17034:1 19225:1 
0.2158934728134392 0:1 2369:1 6427:1 8612:1 9587:1 10058:1 10140:1 10470:1 14731:1 15414:1 16510:1 17354:1 17376:1 
0.7476110790299951 451:1 2330:1 5059:1 7384:1 7737:1 8302:1 8419:1 9052:1 9115:1 9547:1 12012:1 12354:1 17034:1 17354:1 17737:1 
0.2737984920087421 7107:1 7891:1 8419:1 9221:1 10069:1 10567:1 11732:1 12607:1 17354:1 18556:1 19093:1 19477:1 
0.0213779918833019 490:1 1819:1 3076:1 8612:1 9666:1 11202:1 14731:1 17354:1 17668:1 
1.683706010970526 0:1 687:1 4194:1 6708:1 8419:1 11561:1 12705:1 14472:1 16735:1 
1.008135226158957 2354:1 2560:1 7191:1 8108:1 8419:1 13029:1 17607:1 18450:1 
0.1217400795843515 2123:1 2354:1 3177:1 3429:1 7384:1 9365:1 11650:1 19477:1 
0.7613779915393141 342:1 490:1 592:1 809:1 1175:1 1333:1 1464:1 2442:1 3009:1 7301:1 7868:1 8419:1 8612:1 11383:1 11435:1 11580:1 11810:1 17376:1 17426:1 17607:1 
0.8471410336710574 511:1 3104:1 7384:1 7654:1 8419:1 8998:1 11580:1 15414:1 15707:1 16296:1 16495:1 17389:1 17607:1 18015:1 18556:1 19258:1 
0.1306396182199281 4305:1 7868:1 8419:1 9095:1 9416:1 11175:1 11810:1 17354:1 17387:1 
0.5920928206909819 900:1 1201:1 8419:1 9095:1 9115:1 9365:1 11102:1 15801:1 17350:1 18450:1 
0.05216144148765128 480:1 1109:1 7669:1 8267:1 8419:1 9115:1 10114:1 10472:1 14919:1 15896:1 17354:1 17607:1 18890:1 
0.0168739154781991 1587:1 7868:1 7870:1 8321:1 8419:1 13864:1 15097:1 17354:1 17593:1 19466:1 19477:1 
0.6253769961985761 0:1 3938:1 5129:1 6276:1 7301:1 7868:1 8419:1 12480:1 13848:1 15085:1 15732:1 16531:1 17426:1 17607:1 
0.6059366181701892 0:1 1271:1 2330:1 2442:1 3896:1 4723:1 5129:1 5702:1 8419:1 8465:1 9115:1 9660:1 11202:1 11426:1 11796:1 13588:1 17034:1 17556:1 
0.003460553189950962 2442:1 6078:1 6500:1 7868:1 11719:1 11881:1 17354:1 17426:1 18955:1 19195:1 19443:1 
0.9516968837349907 0:1 386:1 4999:1 6708:1 7058:1 7770:1 8419:1 9115:1 9130:1 9365:1 10060:1 10188:1 11202:1 11469:1 11561:1 11731:1 11967:1 12012:1 14731:1 15896:1 16323:1 17354:1 17366:1 17405:1 17486:1 17607:1 17629:1 18401:1 18450:1 18827:1 
0.1272331199852731 0:1 1795:1 2720:1 7241:1 8419:1 9020:1 9263:1 10462:1 18854:1 19132:1 
0.265372325189278 0:1 1999:1 2442:1 4999:1 8302:1 8419:1 8666:1 8998:1 14969:1 17661:1 18261:1 19057:1 
0.01739132416972052 5959:1 6048:1 8203:1 8419:1 17350:1 17354:1 17607:1 17617:1 18401:1 18902:1 19026:1 19258:1 
0.3457314937432587 0:1 41:1 1398:1 3175:1 10838:1 11028:1 11327:1 11580:1 16649:1 17389:1 
0.1662986900926088 679:1 1804:1 2643:1 4564:1 5017:1 5314:1 7058:1 7191:1 9115:1 9817:1 10271:1 17034:1 17354:1 
1.01352168835677 2028:1 3287:1 4070:1 7185:1 7333:1 7483:1 8419:1 10188:1 10567:1 11202:1 11327:1 13169:1 14731:1 16869:1 17350:1 17607:1 19477:1 
0.4222390017118932 1372:1 1616:1 6708:1 9095:1 11202:1 15979:1 17354:1 17668:1 
0.1323133897640169 0:1 511:1 4999:1 8078:1 8302:1 8419:1 8612:1 9901:1 10188:1 11009:1 15762:1 16055:1 17239:1 17354:1 19268:1 
0.164172376138558 2330:1 4432:1 5059:1 8419:1 8612:1 9130:1 9547:1 10188:1 11731:1 12209:1 17034:1 17354:1 18561:1 19057:1 19396:1 
0.9816207267333993 4256:1 7185:1 7283:1 8612:1 10567:1 11969:1 13015:1 17354:1 17426:1 17482:1 18629:1 19195:1 
0.02799188500681514 1175:1 1911:1 8419:1 9365:1 11796:1 15953:1 17354:1 18750:1 
0.281996622308498 856:1 1464:1 9137:1 10229:1 11235:1 11796:1 15623:1 18916:1 19495:1 
0.1709269787926155 761:1 1251:1 8218:1 8242:1 8419:1 8612:1 11202:1 11731:1 12161:1 12583:1 14427:1 15633:1 17182:1 17354:1 18450:1 
0.2572138573697861 5066:1 6469:1 7384:1 7997:1 8419:1 9972:1 11202:1 13441:1 15337:1 15896:1 18890:1 19034:1 19045:1 19076:1 19258:1 
0.6519269850675481 1475:1 7852:1 8095:1 8419:1 9115:1 10258:1 18890:1 
0.1977321713763286 592:1 2133:1 3076:1 10974:1 
0.5557360586454881 592:1 2396:1 6445:1 8419:1 9115:1 9365:1 11327:1 11580:1 11796:1 12235:1 14957:1 15896:1 17426:1 17607:1 19355:1 
0.08585852649104692 26:1 521:1 5899:1 6954:1 7301:1 7654:1 8267:1 8612:1 10567:1 11967:1 16947:1 17607:1 19076:1 19477:1 19487:1 
0.248907903791309 3250:1 6449:1 6708:1 7352:1 8198:1 8419:1 8612:1 9365:1 12354:1 13813:1 14938:1 15477:1 15991:1 16628:1 17348:1 17354:1 19477:1 
0.3309168191996117 0:1 2330:1 2442:1 5059:1 6708:1 8419:1 9365:1 10889:1 17034:1 17081:1 17354:1 17426:1 17840:1 18946:1 19396:1 19477:1 
0.008406788770374273 451:1 3048:1 6445:1 7347:1 7384:1 7868:1 8419:1 10094:1 10537:1 11202:1 11796:1 15123:1 15434:1 17354:1 17426:1 17607:1 18946:1 19507:1 
0.5355591406956942 0:1 41:1 1398:1 1616:1 1795:1 2330:1 5072:1 6708:1 7795:1 7891:1 8419:1 8465:1 9115:1 9263:1 9547:1 10213:1 11881:1 14731:1 15434:1 17668:1 
0.3450202934882576 1392:1 5016:1 6075:1 8302:1 11132:1 11327:1 
0.2173547408265432 1032:1 4713:1 4999:1 5899:1 7654:1 13574:1 14098:1 14595:1 15773:1 17607:1 19258:1 
0.07905479788943937 1959:1 1991:1 4999:1 7352:1 7370:1 10271:1 11531:1 12669:1 
0.04514949474142294 592:1 722:1 3287:1 4146:1 6756:1 7891:1 8612:1 9873:1 13584:1 13984:1 18127:1 18251:1 18351:1 18890:1 19477:1 19487:1 
0.07616367617372183 3145:1 6510:1 7333:1 9115:1 9365:1 10567:1 13923:1 14316:1 16495:1 16588:1 16594:1 17354:1 17607:1 18890:1 19081:1 
0.1513849895014897 7876:1 7891:1 8419:1 8612:1 10188:1 11580:1 15586:1 16869:1 17607:1 17975:1 18890:1 
0.239516148146644 1398:1 1571:1 3486:1 5906:1 6523:1 6796:1 7333:1 8419:1 8998:1 9095:1 9365:1 10243:1 11967:1 17354:1 17426:1 17607:1 19000:1 
0.03926883865090969 2330:1 8419:1 10093:1 10188:1 10650:1 10654:1 11202:1 11469:1 18249:1 19258:1 
0.04837210939359225 41:1 871:1 6071:1 6300:1 6924:1 7191:1 7872:1 8612:1 9095:1 9770:1 11202:1 12209:1 13394:1 15043:1 17354:1 17607:1 19477:1 
0.7753011112793091 7801:1 9115:1 10271:1 10483:1 16194:1 17607:1 
0.1710476420373979 55:1 592:1 1201:1 2993:1 3048:1 3867:1 4999:1 5892:1 6214:1 7807:1 8419:1 8612:1 9095:1 9115:1 11517:1 11796:1 11953:1 14772:1 16628:1 17342:1 17350:1 17354:1 17973:1 19477:1 
0.1887377542864858 343:1 392:1 3474:1 5916:1 6276:1 7232:1 7531:1 9137:1 11561:1 15097:1 16080:1 
0.07430501176918453 1398:1 2471:1 4502:1 6708:1 8419:1 12012:1 12538:1 17607:1 18804:1 19487:1 
1.284803307918421 0:1 871:1 1398:1 3709:1 4722:1 5072:1 7185:1 7384:1 8419:1 9115:1 9365:1 9901:1 9995:1 11881:1 12617:1 16351:1 17350:1 17376:1 17668:1 19155:1 19345:1 19363:1 19477:1 
0.07425508012815682 0:1 4739:1 6445:1 7384:1 7429:1 8419:1 11202:1 11580:1 11796:1 11881:1 13588:1 16453:1 
0.05479219780677789 809:1 1820:1 6481:1 8871:1 11767:1 12012:1 
0.810062542627959 490:1 1475:1 7333:1 7384:1 7891:1 8078:1 8419:1 9529:1 9901:1 11967:1 12238:1 15896:1 17376:1 17607:1 18890:1 18955:1 
0.1149898064196058 809:1 1587:1 4297:1 4999:1 5909:1 8302:1 10271:1 11580:1 11953:1 15896:1 16487:1 17342:1 18955:1 
0.8318782659816079 3301:1 4754:1 7868:1 9095:1 11469:1 11580:1 17426:1 17551:1 17607:1 
0.3415981974526857 1006:1 3876:1 7978:1 8612:1 12407:1 15117:1 16228:1 17354:1 17393:1 
0.2563418725289685 0:1 4233:1 7891:1 7931:1 9626:1 11796:1 12841:1 14731:1 
0.1318376069442776 567:1 5024:1 8268:1 8419:1 8468:1 9115:1 11670:1 15305:1 17607:1 18890:1 
0.6441819997670701 511:1 5016:1 7766:1 9766:1 10127:1 11202:1 11630:1 14472:1 17342:1 19155:1 
0.4240086841359998 398:1 1251:1 1398:1 5238:1 7333:1 9115:1 9660:1 9901:1 11202:1 11409:1 14731:1 17124:1 17354:1 17607:1 19268:1 19443:1 
0.06664376450471368 2330:1 6481:1 6537:1 8419:1 9115:1 9700:1 11796:1 17354:1 18890:1 
0.004495847144996122 900:1 1207:1 1345:1 7185:1 7348:1 8302:1 8419:1 10188:1 11202:1 11599:1 11731:1 11967:1 14818:1 17607:1 
0.4016860788938373 567:1 687:1 2442:1 4999:1 5018:1 5810:1 8419:1 9051:1 17350:1 17661:1 
2.131040185074669 3287:1 7241:1 7892:1 8419:1 8465:1 8612:1 9858:1 10188:1 10567:1 17354:1 18854:1 19477:1 
0.1560827042620572 1398:1 5072:1 5899:1 8003:1 8302:1 8419:1 9547:1 17607:1 
0.08432691370192012 809:1 4999:1 8302:1 8465:1 9045:1 11810:1 11967:1 13588:1 15987:1 17239:1 17389:1 19477:1 
0.7381739943636098 809:1 2442:1 2471:1 5030:1 6472:1 8173:1 8419:1 11561:1 11963:1 12750:1 14472:1 15896:1 17092:1 17607:1 17975:1 18955:1 19258:1 
0.0727017768586477 592:1 6554:1 8581:1 8764:1 9821:1 9875:1 10572:1 14807:1 17354:1 17405:1 
0.6776418694020062 0:1 2192:1 2330:1 6963:1 9115:1 9901:1 10058:1 17658:1 17677:1 18890:1 19258:1 19487:1 
4 1433:1 1619:1 5244:1 8419:1 9115:1 9365:1 10074:1 10188:1 10811:1 11469:1 14731:1 15774:1 
0.0857935654754596 856:1 1467:1 1475:1 2440:1 2442:1 6157:1 8302:1 8612:1 10060:1 10088:1 10359:1 10960:1 11469:1 12884:1 15451:1 17555:1 17607:1 19477:1 19487:1 
0.5423276955151692 5397:1 8419:1 9115:1 10103:1 13627:1 15896:1 
0.1581390334552082 999:1 4194:1 5702:1 6223:1 9116:1 10359:1 11202:1 11798:1 15896:1 17039:1 17674:1 19477:1 
0.07568789377514817 8465:1 9115:1 9462:1 11531:1 14595:1 14731:1 
0.001456581113046437 98:1 592:1 6854:1 8419:1 9365:1 9865:1 10188:1 10305:1 11202:1 11796:1 11967:1 
0.357467492005447 637:1 682:1 856:1 2330:1 2442:1 5721:1 8419:1 9115:1 9901:1 10567:1 10572:1 11235:1 11830:1 14731:1 17034:1 17350:1 17354:1 17607:1 18827:1 18869:1 19216:1 
0.09432898857618181 8419:1 9153:1 10729:1 10867:1 11132:1 15896:1 15995:1 
0.6265384417741651 900:1 3287:1 5059:1 5381:1 7835:1 11525:1 11967:1 17034:1 17408:1 19355:1 19477:1 19487:1 
1.18834039498376 809:1 2330:1 4803:1 5017:1 5059:1 7868:1 8419:1 8440:1 8612:1 9115:1 9227:1 10069:1 11469:1 15896:1 17034:1 17408:1 18955:1 19081:1 19466:1 
0.2138373073599697 3579:1 8419:1 9547:1 9901:1 10194:1 11561:1 17155:1 19057:1 
0.1883363034333679 451:1 999:1 1432:1 7185:1 8078:1 8419:1 9115:1 9130:1 9901:1 10058:1 11013:1 11731:1 12404:1 14146:1 15896:1 17350:1 17354:1 17607:1 17670:1 18444:1 18890:1 19456:1 19477:1 
0.1073799865412995 820:1 1571:1 3179:1 12209:1 16273:1 17354:1 17441:1 18890:1 
0.1702207203028492 856:1 1153:1 5059:1 6458:1 6901:1 8003:1 11410:1 17034:1 17389:1 17869:1 18691:1 19195:1 19345:1 19487:1 
0.08929731597161936 7191:1 8612:1 9095:1 9991:1 11761:1 11771:1 13815:1 17405:1 17426:1 19133:1 
0.5487799678779148 342:1 1892:1 8347:1 8612:1 11202:1 11334:1 13588:1 15987:1 16495:1 17426:1 17607:1 
0.3144328711607224 0:1 6157:1 6796:1 8419:1 8612:1 9365:1 9660:1 10586:1 11426:1 11967:1 15688:1 17354:1 18559:1 19258:1 
0.01166112380157991 5392:1 6336:1 8369:1 8419:1 9901:1 9983:1 10188:1 10276:1 10567:1 11731:1 17700:1 18496:1 
1.812587597098579 551:1 1398:1 4281:1 6708:1 7333:1 8419:1 11028:1 11796:1 11967:1 13588:1 15434:1 17354:1 18946:1 
0.008874479847062092 6708:1 7893:1 8419:1 12608:1 16751:1 17426:1 17441:1 19195:1 
0.2171992583800934 3287:1 6708:1 9115:1 11796:1 11798:1 17081:1 17123:1 17187:1 17354:1 18650:1 
0.02309963146028472 1251:1 2330:1 4999:1 6708:1 7236:1 9115:1 9864:1 9901:1 9984:1 11494:1 11731:1 11953:1 17362:1 17607:1 18077:1 
0.2664150818161403 265:1 7691:1 8419:1 8465:1 8612:1 10188:1 10872:1 11034:1 13813:1 16037:1 17426:1 19477:1 
0.5052872722438011 662:1 687:1 5652:1 7333:1 9115:1 11953:1 14097:1 17342:1 17350:1 17354:1 17607:1 18295:1 18890:1 19258:1 
1.351710562031106 2442:1 3290:1 5916:1 6756:1 7348:1 7643:1 8419:1 8612:1 9365:1 10188:1 15423:1 16348:1 17350:1 17408:1 
0.06542436066438086 629:1 1398:1 2442:1 4120:1 6596:1 7062:1 7647:1 7891:1 8302:1 9115:1 9274:1 11132:1 11963:1 11967:1 14185:1 15896:1 17607:1 19355:1 
0.01449454808077041 7878:1 9115:1 9901:1 16421:1 16969:1 17607:1 17973:1 18890:1 18916:1 
0.6326404803514694 592:1 1391:1 1795:1 3287:1 11202:1 12230:1 17607:1 18855:1 
0.5091074290036747 451:1 2442:1 7185:1 8419:1 10275:1 11202:1 11731:1 11967:1 15401:1 17034:1 17426:1 17607:1 18804:1 
0.1816933180743261 4722:1 7737:1 9206:1 11796:1 15431:1 16322:1 17668:1 18401:1 18814:1 19258:1 19477:1 19487:1 
0.0837344311124032 592:1 682:1 999:1 3216:1 5059:1 5657:1 8419:1 9751:1 11580:1 14731:1 15868:1 16504:1 17034:1 17350:1 19155:1 19258:1 19477:1 
0.2922232540207807 538:1 2801:1 6341:1 9115:1 9171:1 9229:1 9901:1 11796:1 
0.8914843631231437 333:1 374:1 592:1 1238:1 1372:1 6615:1 7301:1 8419:1 8612:1 9115:1 9365:1 10359:1 10567:1 11239:1 11731:1 13247:1 15434:1 15896:1 17350:1 17354:1 17389:1 17417:1 17487:1 17555:1 18401:1 18556:1 
0.05155153669970505 451:1 900:1 4297:1 5189:1 5205:1 6708:1 6861:1 7498:1 10058:1 10301:1 11426:1 12278:1 14731:1 16285:1 
0.1201108952164327 2071:1 2442:1 6333:1 7997:1 8419:1 15085:1 17034:1 17405:1 17426:1 17607:1 18804:1 
0.5016095523290628 484:1 900:1 3287:1 3709:1 6449:1 7185:1 10058:1 11963:1 15255:1 16392:1 16575:1 17350:1 17354:1 17607:1 18192:1 18556:1 18955:1 
2.577362735779253 0:1 6355:1 7891:1 9901:1 10301:1 11798:1 17466:1 
0.2327055544300957 342:1 2512:1 4318:1 4722:1 8388:1 9365:1 11531:1 12750:1 17354:1 19477:1 
0.3150388195502746 0:1 1344:1 1398:1 4817:1 7333:1 7997:1 8321:1 8419:1 10188:1 11731:1 11796:1 15633:1 17354:1 17607:1 18629:1 
0.0230045521478926 0:1 1236:1 5351:1 8419:1 15423:1 17342:1 17350:1 17354:1 17426:1 17551:1 18890:1 19347:1 
0.2847993504096619 383:1 900:1 2330:1 3446:1 5017:1 7868:1 8419:1 9432:1 10058:1 14880:1 15337:1 15896:1 17034:1 18077:1 18890:1 19440:1 
0.2294098701378436 2793:1 4612:1 5186:1 6708:1 7384:1 9365:1 17350:1 18401:1 
1.366028261832987 2442:1 6272:1 6789:1 7185:1 7667:1 12209:1 17354:1 17607:1 18955:1 19081:1 
0.2869264788354935 41:1 2516:1 5017:1 5899:1 9115:1 9901:1 10378:1 10972:1 11202:1 14731:1 17034:1 19324:1 
0.1708765743617506 0:1 592:1 3129:1 8053:1 8419:1 8612:1 10188:1 10996:1 11202:1 11580:1 14731:1 16869:1 17376:1 
0.1438434018317873 0:1 451:1 5435:1 7679:1 7758:1 9415:1 11238:1 12753:1 15896:1 18890:1 18955:1 
0.3875711229220782 1464:1 1616:1 6336:1 6708:1 7058:1 7832:1 8419:1 9875:1 9901:1 10724:1 11202:1 11798:1 13048:1 19133:1 
3.08811255923569 682:1 5059:1 5244:1 5899:1 5911:1 7185:1 9115:1 9901:1 10567:1 14731:1 17034:1 17607:1 18855:1 19258:1 19477:1 
0.3940482323694202 0:1 856:1 7679:1 8419:1 9115:1 9365:1 11202:1 11796:1 15380:1 17205:1 18801:1 18890:1 19026:1 
0.08623598825035177 0:1 5390:1 7703:1 9115:1 9972:1 11731:1 15633:1 17045:1 17354:1 17514:1 18890:1 
0.04836816167988472 924:1 1372:1 3287:1 8419:1 8612:1 11731:1 11967:1 14033:1 16080:1 17354:1 17607:1 18372:1 19477:1 
0.3147528261946743 999:1 4722:1 4724:1 5389:1 5906:1 7638:1 8302:1 8612:1 11101:1 11963:1 14322:1 16274:1 17277:1 17389:1 18955:1 19081:1 
0.2402161709512579 816:1 7868:1 7891:1 8419:1 9365:1 9432:1 11409:1 14197:1 17350:1 
0.4990211336745015 1421:1 2443:1 9365:1 10271:1 10974:1 11327:1 12209:1 13848:1 14750:1 15896:1 16453:1 17354:1 17389:1 17607:1 18444:1 18445:1 19129:1 19295:1 
0.02341793530537276 451:1 999:1 5372:1 6807:1 11796:1 16174:1 16495:1 17354:1 17607:1 19034:1 19456:1 19477:1 
0.2250685131835501 451:1 682:1 999:1 1052:1 2442:1 5072:1 5354:1 5389:1 6455:1 7891:1 8078:1 8419:1 8612:1 9115:1 11202:1 11731:1 11796:1 11967:1 12209:1 15896:1 17354:1 17876:1 18890:1 19020:1 19110:1 19477:1 19487:1 
0.9857558088872254 592:1 1801:1 2210:1 2442:1 3048:1 3970:1 6708:1 7191:1 8419:1 8612:1 9115:1 10188:1 17034:1 
0.764100549614392 2317:1 2442:1 11202:1 14046:1 17048:1 
0.1043379887914436 90:1 3000:1 6518:1 9095:1 9115:1 11469:1 13512:1 16965:1 17171:1 17607:1 18170:1 
0.07488676691228481 451:1 1721:1 6708:1 8286:1 13252:1 16495:1 18788:1 19487:1 
1.467694406116533 490:1 592:1 856:1 924:1 2010:1 2442:1 6300:1 7654:1 8419:1 9365:1 9901:1 10069:1 11202:1 11580:1 11953:1 12771:1 17350:1 18556:1 18804:1 18890:1 19477:1 
0.01746458444432811 0:1 688:1 1175:1 1993:1 6841:1 7832:1 8419:1 11327:1 11731:1 11796:1 14890:1 15116:1 17351:1 17354:1 17599:1 17964:1 19363:1 19395:1 
0.2847323877082104 0:1 592:1 1989:1 3880:1 5299:1 7248:1 8419:1 8612:1 9115:1 9365:1 11202:1 11218:1 11967:1 12089:1 12809:1 13144:1 14612:1 15024:1 15896:1 17034:1 17607:1 18449:1 19357:1 
0.4636372018625179 0:1 1440:1 5033:1 7832:1 8419:1 8895:1 9365:1 9965:1 10567:1 11285:1 15431:1 16734:1 16927:1 17350:1 17405:1 17607:1 
0.4317187167632491 1464:1 3761:1 4302:1 9115:1 9365:1 9547:1 17354:1 18444:1 18556:1 19268:1 19355:1 19420:1 
0.192378820468126 1175:1 2330:1 6708:1 7241:1 7301:1 8419:1 9115:1 9234:1 9805:1 10058:1 11561:1 15241:1 17350:1 17408:1 17607:1 17668:1 18191:1 18401:1 19032:1 19268:1 19355:1 
0.03287556041618249 1902:1 5392:1 5749:1 6157:1 9095:1 10872:1 11202:1 11561:1 11578:1 11796:1 11967:1 14472:1 17712:1 19487:1 19488:1 
0.05014036565620439 2060:1 6708:1 11469:1 12447:1 16237:1 17426:1 18449:1 19247:1 
0.8340291436925432 592:1 703:1 856:1 1175:1 1398:1 1499:1 1556:1 4722:1 7758:1 8419:1 9526:1 10058:1 11202:1 11531:1 11812:1 13162:1 16079:1 17607:1 18172:1 18827:1 19258:1 
0.510025442058383 0:1 2330:1 5033:1 5059:1 5153:1 8419:1 9547:1 11202:1 11796:1 13813:1 14731:1 16557:1 17034:1 17376:1 19057:1 19477:1 
0.08868760243138953 5040:1 8419:1 8612:1 9365:1 9529:1 11802:1 17240:1 17354:1 17408:1 18401:1 18890:1 19057:1 19262:1 
0.006603909853624959 3065:1 4882:1 4999:1 8416:1 8419:1 8465:1 8612:1 9115:1 9365:1 11580:1 11796:1 11881:1 13636:1 17354:1 17470:1 18015:1 18401:1 
0.119143662124422 592:1 856:1 2449:1 2982:1 3026:1 4134:1 7412:1 11101:1 11731:1 11967:1 12405:1 19032:1 19034:1 19477:1 
0.003877300963548207 0:1 41:1 592:1 3833:1 5010:1 8465:1 9792:1 11202:1 15314:1 16495:1 16605:1 17034:1 17389:1 18827:1 18916:1 19034:1 19057:1 19111:1 19357:1 19477:1 
0.05433958315287896 4705:1 8200:1 9271:1 10538:1 11796:1 12235:1 14731:1 
0.005731235970362098 0:1 900:1 2354:1 2442:1 7301:1 9365:1 10999:1 11731:1 14318:1 15123:1 17354:1 17426:1 
0.2680323540926068 7191:1 8971:1 9095:1 9137:1 10069:1 11235:1 11796:1 13848:1 15097:1 17354:1 17582:1 18083:1 19477:1 
0.05130028161725678 480:1 592:1 1372:1 2869:1 7787:1 8612:1 9547:1 10567:1 11731:1 11963:1 12209:1 14731:1 15181:1 15597:1 17376:1 17607:1 18860:1 19057:1 
0.2871358450447151 0:1 451:1 592:1 2330:1 4368:1 5389:1 6417:1 7384:1 7496:1 7868:1 9115:1 16074:1 17366:1 17607:1 19477:1 
0.3539196210902358 592:1 2628:1 3301:1 4993:1 5072:1 7191:1 7997:1 8419:1 9115:1 9410:1 9461:1 9901:1 11732:1 11796:1 11881:1 11967:1 15991:1 17354:1 17430:1 18855:1 
0.0586105736287941 1398:1 5721:1 6249:1 6423:1 6708:1 8075:1 8612:1 9115:1 11202:1 11967:1 15619:1 17354:1 17607:1 17682:1 17975:1 18705:1 18983:1 19129:1 
0.002716314190077471 0:1 5019:1 8267:1 8419:1 9115:1 10567:1 11731:1 14152:1 14874:1 15021:1 16926:1 17617:1 19133:1 19477:1 
0.05911565958481007 592:1 3287:1 6963:1 8078:1 8612:1 12750:1 15872:1 16495:1 17354:1 18444:1 19258:1 
0.2260933002239232 0:1 188:1 2442:1 8612:1 11202:1 11239:1 11798:1 14731:1 15401:1 16139:1 17350:1 17426:1 
0.2323122137538439 202:1 592:1 1135:1 4722:1 6572:1 9115:1 9130:1 12905:1 18955:1 19463:1 
0.6727131057934265 1619:1 4709:1 7956:1 8419:1 15487:1 17342:1 18401:1 18966:1 19487:1 
0.7643214044114512 0:1 1251:1 6196:1 6355:1 9115:1 9867:1 9901:1 11202:1 17449:1 19034:1 
0.7520978047927556 1398:1 3471:1 5899:1 6158:1 8419:1 8612:1 11306:1 11563:1 14166:1 15434:1 17426:1 
0.2941811145353847 0:1 1679:1 6708:1 7241:1 7348:1 7352:1 7892:1 8085:1 8508:1 16495:1 19062:1 19477:1 
0.2137356337218391 1951:1 3287:1 6977:1 7107:1 8998:1 9365:1 10567:1 11202:1 12461:1 17426:1 17607:1 18904:1 19000:1 19324:1 
0.09167195174164093 374:1 592:1 689:1 1398:1 2330:1 2682:1 4999:1 6415:1 6510:1 7301:1 7348:1 8419:1 9115:1 9547:1 10188:1 10536:1 11426:1 11531:1 13088:1 14316:1 17607:1 
0.2601352836456683 3287:1 7572:1 11963:1 12734:1 15085:1 15597:1 
0.02592594563618026 2868:1 3709:1 5944:1 6157:1 7333:1 8078:1 8302:1 8419:1 8520:1 11796:1 11953:1 12404:1 14731:1 15085:1 15089:1 15434:1 15980:1 16735:1 17034:1 17354:1 18618:1 18901:1 18955:1 
0.3080632046791887 5017:1 10288:1 10897:1 16150:1 17034:1 17668:1 19026:1 19258:1 
0.03140289063351779 1442:1 6691:1 8419:1 9095:1 9115:1 9256:1 11202:1 11580:1 14731:1 16059:1 17408:1 17607:1 18946:1 19331:1 
0.1018150802165155 592:1 1175:1 5040:1 5061:1 7107:1 7654:1 7701:1 8612:1 9115:1 9365:1 11239:1 11580:1 12567:1 13590:1 13789:1 17329:1 17342:1 17362:1 17366:1 17607:1 19477:1 19487:1 
0.03417211566461022 0:1 451:1 1464:1 3076:1 3123:1 7868:1 8078:1 8612:1 9983:1 10758:1 11580:1 11704:1 11731:1 17066:1 18419:1 19487:1 
0.1408236943728167 679:1 1343:1 3186:1 7832:1 7860:1 8419:1 9115:1 11796:1 13220:1 14731:1 14932:1 16518:1 17350:1 17360:1 17408:1 19395:1 
0.08871888177645941 679:1 1433:1 3995:1 5072:1 6708:1 7384:1 7868:1 8053:1 8418:1 8419:1 9660:1 9901:1 10838:1 11426:1 11580:1 15896:1 16834:1 
0.4172193659602625 809:1 7191:1 8053:1 9095:1 9115:1 9365:1 10567:1 11881:1 14935:1 15243:1 
0.1688938876293946 6481:1 8480:1 9115:1 9901:1 14731:1 19258:1 
0.3545367248073071 0:1 592:1 1398:1 1958:1 4103:1 5390:1 7703:1 9172:1 9365:1 9736:1 9901:1 9995:1 10567:1 11402:1 11731:1 15983:1 16011:1 17366:1 17607:1 18401:1 18814:1 19477:1 
0.546179315874342 999:1 2330:1 2354:1 5033:1 6505:1 6853:1 7191:1 8078:1 8508:1 9115:1 9222:1 10567:1 11561:1 11732:1 11767:1 11967:1 17607:1 18890:1 19471:1 
0.2941522905301045 513:1 809:1 2330:1 5059:1 6489:1 8419:1 9547:1 17034:1 17376:1 19081:1 
0.7397509256731338 809:1 9513:1 11531:1 12904:1 17143:1 
0.2202195056164413 3250:1 3287:1 7868:1 9115:1 9901:1 10271:1 11704:1 12306:1 14731:1 17350:1 17426:1 17607:1 18955:1 19001:1 19155:1 
0.342468763442359 0:1 1616:1 8612:1 9115:1 9901:1 9983:1 11719:1 16971:1 17062:1 17354:1 18890:1 
0.8396526861347796 404:1 2817:1 6708:1 7851:1 8419:1 8465:1 11132:1 12090:1 12760:1 13598:1 15896:1 17034:1 17354:1 17362:1 17389:1 19034:1 19357:1 
0.2023872769504603 1648:1 7868:1 7891:1 10567:1 10747:1 17245:1 17350:1 17491:1 17627:1 18955:1 
0.2698560063078458 55:1 2330:1 4194:1 4875:1 6057:1 8419:1 8612:1 9095:1 9115:1 9901:1 11096:1 11202:1 15122:1 16453:1 17607:1 
0.7073581376168816 5906:1 7241:1 8301:1 11469:1 11798:1 15434:1 18444:1 
0.2785783684546276 2060:1 3821:1 6731:1 7716:1 7891:1 8078:1 8419:1 9115:1 9529:1 11797:1 11967:1 13501:1 17354:1 17551:1 17607:1 18401:1 18890:1 19258:1 
0.09223891575645309 2330:1 4305:1 5059:1 5392:1 6708:1 7333:1 7624:1 8419:1 9095:1 9547:1 10061:1 10188:1 11541:1 11796:1 13941:1 15627:1 15669:1 17034:1 17354:1 17551:1 19057:1 19336:1 
0.2175379011732564 0:1 592:1 1208:1 5042:1 6708:1 8612:1 9115:1 10014:1 11580:1 12687:1 18857:1 19477:1 19528:1 
0.05820069980508713 900:1 4297:1 4298:1 5480:1 7703:1 8069:1 9095:1 10567:1 11881:1 15896:1 16487:1 17356:1 17426:1 
0.1124863539007819 0:1 4588:1 6923:1 8419:1 8451:1 9365:1 11731:1 12674:1 19477:1 19487:1 
0.07938657539217812 592:1 973:1 2631:1 4725:1 7301:1 8419:1 8465:1 9115:1 9365:1 11285:1 14731:1 17389:1 19258:1 
0.5252268476447919 4367:1 6708:1 8612:1 9365:1 9829:1 10567:1 11058:1 11096:1 11202:1 11731:1 12404:1 16442:1 17348:1 17354:1 17389:1 17426:1 17551:1 18855:1 19060:1 
0.09543987177932317 2405:1 6505:1 6848:1 6923:1 7384:1 8419:1 8612:1 9115:1 11034:1 11435:1 11731:1 11798:1 13176:1 15896:1 17354:1 17441:1 18699:1 18890:1 19442:1 
0.1329557635697557 5899:1 7038:1 7855:1 9614:1 13551:1 
0.02960676780549625 1961:1 8419:1 9115:1 9227:1 9365:1 9547:1 13818:1 14552:1 15413:1 15896:1 18890:1 18910:1 19057:1 19076:1 19355:1 
0.3156790729107131 0:1 3301:1 5480:1 6962:1 7185:1 8419:1 10188:1 11202:1 11531:1 11796:1 11881:1 12606:1 12886:1 15623:1 17082:1 
0.4910497527251801 5906:1 7679:1 7868:1 8419:1 12750:1 13780:1 15768:1 15896:1 17389:1 17607:1 18955:1 19034:1 
0.1766116175087141 0:1 1370:1 2060:1 7389:1 7679:1 9703:1 11138:1 11399:1 11731:1 11798:1 11881:1 12611:1 14731:1 15337:1 15991:1 16778:1 17351:1 17682:1 18969:1 19093:1 
0.2790448949231504 900:1 1808:1 6985:1 7103:1 9095:1 9115:1 11132:1 11308:1 11531:1 13499:1 16056:1 18401:1 
0.03884950656602958 1991:1 7447:1 9365:1 11202:1 11796:1 12750:1 13588:1 15403:1 17607:1 19183:1 
0.0585214806293085 592:1 630:1 900:1 999:1 1292:1 2426:1 6446:1 6505:1 7891:1 9115:1 9390:1 11798:1 11967:1 15589:1 17354:1 17607:1 19034:1 19093:1 19477:1 
0.07239325521170642 592:1 809:1 3102:1 3210:1 6977:1 7997:1 8612:1 9130:1 11239:1 11469:1 14807:1 17354:1 17606:1 
0.3022322826648861 809:1 4120:1 7352:1 7489:1 8136:1 17405:1 18496:1 
0.2553741840010947 1201:1 4114:1 8419:1 9095:1 9115:1 16926:1 17350:1 17520:1 19076:1 19487:1 
0.2638220666123079 1251:1 5072:1 6057:1 6923:1 8419:1 11232:1 16106:1 17607:1 17973:1 19487:1 
0.2669359897005932 2471:1 11469:1 15047:1 15805:1 19477:1 
0.1150658395653371 0:1 1801:1 4082:1 6923:1 7787:1 8302:1 8460:1 9115:1 10217:1 10567:1 15337:1 15813:1 17607:1 17820:1 18610:1 
0.3500240472964241 592:1 1571:1 3287:1 3478:1 5017:1 5899:1 7891:1 8302:1 8419:1 8612:1 9547:1 10572:1 11796:1 13588:1 13621:1 14731:1 16364:1 17034:1 17354:1 17607:1 
0.3750158196832191 451:1 809:1 2330:1 5040:1 6708:1 7917:1 8419:1 10367:1 11328:1 15896:1 17350:1 17376:1 17607:1 18890:1 
0.3200873608559032 1795:1 5059:1 7241:1 9264:1 13207:1 17034:1 
0.1629411184293013 0:1 4780:1 7868:1 8419:1 16321:1 17790:1 
0.4051714716524501 0:1 1398:1 1620:1 2440:1 3833:1 8465:1 8612:1 9115:1 9135:1 11275:1 12012:1 13588:1 14606:1 17354:1 19143:1 19355:1 19477:1 
0.1268664781070884 0:1 1881:1 2471:1 3290:1 5909:1 7185:1 7982:1 8419:1 8772:1 9115:1 11796:1 15276:1 17350:1 17551:1 19015:1 
0.6397178263714057 41:1 900:1 1047:1 2516:1 5072:1 7241:1 7892:1 8419:1 10058:1 10567:1 12404:1 14731:1 17389:1 
0.3050429173653512 451:1 1398:1 2442:1 5059:1 6276:1 6708:1 7868:1 8419:1 9178:1 11967:1 12012:1 14291:1 15085:1 15896:1 17034:1 17354:1 17607:1 18804:1 19331:1 
3.720957684846722 636:1 1398:1 6708:1 8078:1 8281:1 8849:1 9115:1 11580:1 15053:1 17607:1 18804:1 18890:1 
0.6061074383009749 3287:1 5129:1 8419:1 9832:1 9989:1 10114:1 11954:1 11963:1 17607:1 18916:1 
0.3203670613269272 391:1 2730:1 4730:1 7333:1 8281:1 11580:1 15896:1 17354:1 19026:1 
0.5355015981800181 0:1 210:1 1271:1 1398:1 1433:1 6336:1 7333:1 7640:1 8419:1 9095:1 9115:1 9365:1 9875:1 9901:1 10188:1 11531:1 14731:1 17426:1 19129:1 19449:1 19487:1 
0.06954988498076271 567:1 2456:1 2862:1 6708:1 8053:1 8281:1 11796:1 15896:1 17350:1 18077:1 18942:1 19034:1 
0.209940720283933 41:1 592:1 1175:1 5022:1 5033:1 6339:1 6355:1 7868:1 8078:1 8419:1 9115:1 10898:1 11202:1 11796:1 12646:1 12904:1 16661:1 17350:1 18955:1 19034:1 
0.276905194693752 3290:1 5545:1 5913:1 6339:1 7301:1 8612:1 11797:1 11967:1 17277:1 17354:1 19215:1 
0.1087769289858217 4267:1 8520:1 9137:1 10486:1 11383:1 18294:1 18490:1 19477:1 
0.2796894760780912 2442:1 4999:1 5913:1 8419:1 8612:1 9095:1 9161:1 9995:1 15085:1 17443:1 19057:1 
0.1778393715845673 1867:1 6505:1 8419:1 9179:1 9365:1 10114:1 11202:1 14781:1 17670:1 
0.2353667403973286 451:1 809:1 2445:1 4999:1 7176:1 8242:1 8612:1 9901:1 16624:1 17092:1 17360:1 17480:1 19155:1 
0.5395443048085753 993:1 2330:1 5246:1 6455:1 8419:1 9115:1 13467:1 14472:1 15570:1 16140:1 19396:1 19477:1 
0.08878148430707813 235:1 3292:1 5186:1 6355:1 6906:1 7333:1 8302:1 8419:1 9115:1 9365:1 9901:1 10567:1 11202:1 11580:1 11771:1 11967:1 15613:1 17350:1 17633:1 18890:1 19258:1 19443:1 
0.5229449084465251 679:1 4723:1 5074:1 7603:1 7868:1 7997:1 8612:1 15633:1 17034:1 17389:1 
0.1354841827686989 856:1 1398:1 2111:1 8419:1 9001:1 11327:1 11531:1 17607:1 18838:1 19093:1 
0.5046703164969242 592:1 6726:1 7333:1 7790:1 8508:1 9365:1 10888:1 11202:1 15085:1 16820:1 17607:1 19057:1 
0.7086686667160836 839:1 6300:1 6708:1 10960:1 11731:1 14731:1 16000:1 17354:1 17589:1 17607:1 17903:1 19379:1 19477:1 
0.5026960527049316 0:1 4312:1 7333:1 10459:1 10753:1 11327:1 17607:1 18955:1 19477:1 
0.02686996619866295 5910:1 6420:1 6953:1 9576:1 9972:1 18890:1 
1.330253514100969 1676:1 6157:1 11334:1 11798:1 11810:1 12480:1 13922:1 14731:1 17376:1 17426:1 17607:1 19258:1 19442:1 
0.02076283079744885 0:1 3564:1 7868:1 11426:1 17607:1 19349:1 
0.7815787882857315 1433:1 4040:1 5318:1 9115:1 9794:1 11796:1 12779:1 16229:1 18890:1 19477:1 19487:1 
0.01215068707149413 0:1 4999:1 7613:1 8302:1 10277:1 11796:1 17607:1 18026:1 18910:1 18955:1 
0.01441869103305119 592:1 2354:1 4684:1 7974:1 8419:1 8612:1 8628:1 9095:1 10188:1 11580:1 11731:1 12925:1 14485:1 17837:1 18065:1 19091:1 19473:1 
0.007472514527050522 1775:1 5072:1 5347:1 7301:1 8612:1 11967:1 14881:1 15431:1 17084:1 17354:1 17426:1 17551:1 18975:1 
0.09012697908386147 592:1 2442:1 3736:1 5122:1 7751:1 8419:1 8612:1 9095:1 10486:1 11132:1 11426:1 11798:1 11810:1 15896:1 17376:1 
0.4590446290123342 1681:1 5059:1 7244:1 7737:1 11149:1 11923:1 17034:1 17350:1 17354:1 19477:1 
3.832515572068192 2334:1 7918:1 8612:1 9115:1 11202:1 13588:1 14772:1 14877:1 17389:1 19477:1 
4 41:1 361:1 1140:1 7384:1 11757:1 14731:1 17426:1 18058:1 19442:1 
0.3180728495713317 430:1 1175:1 2442:1 2692:1 5650:1 5909:1 6708:1 7191:1 9095:1 9365:1 11580:1 13848:1 
0.2795807221145582 856:1 4297:1 8281:1 11058:1 11202:1 11731:1 13015:1 14415:1 19026:1 
0.0778088127623127 1585:1 2442:1 7028:1 8302:1 8612:1 9995:1 11132:1 11327:1 11796:1 12771:1 17081:1 17354:1 17375:1 18955:1 19477:1 
0.3005625875709708 0:1 2442:1 4598:1 5211:1 11796:1 13588:1 14347:1 19477:1 
0.1325013937025 451:1 2201:1 2471:1 6708:1 7785:1 7789:1 8419:1 9095:1 17203:1 17350:1 17426:1 17531:1 17607:1 18804:1 19258:1 
0.1023711346059208 451:1 592:1 1421:1 1445:1 4297:1 4305:1 7872:1 8419:1 8612:1 9365:1 9709:1 10188:1 11731:1 11732:1 11798:1 17441:1 17607:1 18855:1 19081:1 
0.224234491917345 451:1 3267:1 3862:1 7352:1 7691:1 7868:1 11469:1 13848:1 15555:1 
0.3024397352294306 0:1 999:1 5073:1 5224:1 5914:1 6529:1 8419:1 9365:1 14689:1 15050:1 16335:1 16340:1 
0.1702798784377355 1571:1 5906:1 8419:1 9365:1 10961:1 11202:1 11239:1 15869:1 
0.2392245035548983 451:1 592:1 9257:1 10273:1 10567:1 12012:1 19455:1 19477:1 
0.03425354984910576 3348:1 5916:1 6254:1 7333:1 7384:1 8419:1 8612:1 9095:1 9585:1 11531:1 17081:1 17354:1 17607:1 17975:1 18556:1 
1.573429221285964 924:1 1464:1 6708:1 7868:1 8419:1 8637:1 11028:1 11580:1 15434:1 16122:1 19076:1 
0.0817037117834723 188:1 483:1 513:1 8384:1 8419:1 8465:1 9766:1 10758:1 16633:1 18401:1 
0.2703213084147944 900:1 7185:1 7348:1 7988:1 8419:1 8465:1 9115:1 10188:1 10567:1 11202:1 12891:1 13588:1 14097:1 15085:1 15980:1 16384:1 17607:1 19170:1 
0.2279912726000866 1698:1 5749:1 8419:1 9365:1 11202:1 11796:1 13133:1 13323:1 15136:1 18066:1 
0.9725848935913599 2059:1 7206:1 8419:1 9365:1 19367:1 
0.380178771653052 1433:1 3225:1 9115:1 9130:1 11531:1 11995:1 15773:1 18890:1 
0.1102449690055625 900:1 1230:1 7281:1 7487:1 8419:1 9943:1 18450:1 
0.1920068866591814 5016:1 7185:1 8132:1 8302:1 8998:1 14838:1 
0.04433799468880081 5033:1 5909:1 6708:1 7557:1 8112:1 15431:1 15878:1 17350:1 17354:1 19034:1 
0.02316260210843256 1531:1 4455:1 5033:1 5909:1 6708:1 6874:1 9095:1 9115:1 11995:1 13813:1 15431:1 18955:1 
1.038961243686342 809:1 10060:1 10742:1 10838:1 11516:1 17342:1 
0.37707707158018 513:1 592:1 2307:1 4135:1 6977:1 8419:1 11731:1 
0.9229244116810611 41:1 592:1 856:1 4999:1 7064:1 7236:1 8302:1 8612:1 11132:1 12547:1 15616:1 16735:1 17389:1 17408:1 19477:1 
1.503442136444711 1393:1 6472:1 8419:1 10060:1 10213:1 10838:1 11580:1 17366:1 17607:1 17670:1 19034:1 19477:1 
0.0107608435038446 0:1 451:1 696:1 2354:1 3118:1 9095:1 9365:1 10060:1 10837:1 11202:1 11561:1 11580:1 15213:1 15628:1 
0.8067193002634844 1445:1 2861:1 8612:1 9901:1 15337:1 16056:1 
0.4203530418317039 1898:1 2354:1 4723:1 4957:1 7384:1 8419:1 9115:1 10188:1 10271:1 11967:1 16037:1 16093:1 17034:1 
0.0593439261539657 592:1 2426:1 3924:1 6805:1 7891:1 8419:1 8612:1 9365:1 9432:1 9770:1 9901:1 10831:1 11202:1 11580:1 17444:1 17555:1 18401:1 
0.2736947541262094 1475:1 5899:1 6708:1 7348:1 7891:1 8166:1 8527:1 9095:1 10002:1 10567:1 11202:1 11531:1 11580:1 11967:1 17426:1 17555:1 19324:1 
0.3083702422569125 1201:1 1471:1 3510:1 7679:1 8419:1 8474:1 9115:1 11531:1 11580:1 11881:1 14731:1 17668:1 18293:1 18556:1 
0.4721110182251156 41:1 2817:1 2951:1 7185:1 11796:1 12933:1 15980:1 16166:1 17607:1 19461:1 
0.1876950744820023 0:1 592:1 1696:1 5129:1 6898:1 7185:1 7891:1 8612:1 11731:1 11796:1 11810:1 14731:1 15623:1 16137:1 17354:1 17682:1 19307:1 
0.3558593252803083 999:1 1961:1 4082:1 7080:1 8108:1 8419:1 10188:1 11777:1 14552:1 18556:1 
0.1609505916887166 0:1 6300:1 8142:1 16488:1 17349:1 
0.1557986100305237 4705:1 7381:1 7696:1 11796:1 11798:1 17354:1 19470:1 
0.1623393220531407 809:1 4689:1 5167:1 6071:1 8053:1 8302:1 10567:1 17389:1 17392:1 17607:1 17973:1 
0.1617524211527819 0:1 2314:1 3920:1 4804:1 6294:1 7384:1 7892:1 8612:1 9365:1 11580:1 12232:1 
4 1201:1 1251:1 1475:1 7868:1 8385:1 8419:1 9365:1 9547:1 11202:1 11383:1 17426:1 
0.4309843070575076 0:1 7333:1 7773:1 8419:1 8465:1 8612:1 9115:1 9410:1 10188:1 11202:1 11239:1 11334:1 11768:1 12480:1 14010:1 15896:1 17354:1 17417:1 17607:1 
0.2640831969109009 592:1 682:1 928:1 1591:1 2442:1 4735:1 6212:1 7809:1 8419:1 11967:1 12242:1 17239:1 17354:1 
0.01097769000747619 290:1 451:1 646:1 687:1 2330:1 4668:1 11426:1 14731:1 17607:1 19358:1 19477:1 
0.02764040374887312 2442:1 4251:1 8041:1 8419:1 8612:1 11202:1 15730:1 17712:1 
0.01006055003342422 1254:1 6751:1 8267:1 8302:1 8419:1 16054:1 
1.079012882959651 2442:1 7868:1 8419:1 8612:1 10567:1 11202:1 13471:1 16624:1 17227:1 17239:1 19155:1 19477:1 
0.1096766881235029 1201:1 1497:1 4999:1 5066:1 5480:1 5955:1 7107:1 7868:1 8419:1 9095:1 9115:1 11058:1 11202:1 11731:1 11881:1 13288:1 16315:1 17350:1 17362:1 19076:1 19355:1 
0.2520846798604637 3726:1 4082:1 4175:1 6518:1 7384:1 7569:1 7737:1 8612:1 9115:1 11096:1 14904:1 15472:1 15896:1 16350:1 16624:1 17227:1 17350:1 17366:1 18890:1 19034:1 19477:1 19487:1 19502:1 
0.5338744299778477 451:1 1162:1 7832:1 9115:1 9365:1 12012:1 17426:1 19395:1 
0.2372458301255308 451:1 592:1 697:1 809:1 856:1 7654:1 7679:1 8612:1 9115:1 9587:1 11539:1 12956:1 12975:1 15241:1 17354:1 17376:1 19057:1 19081:1 19155:1 19477:1 
0.3162411842687656 10217:1 10567:1 10921:1 11204:1 11731:1 12408:1 12606:1 17354:1 17607:1 17716:1 18855:1 
0.1400301704812062 5129:1 5899:1 7301:1 8078:1 11204:1 11531:1 11731:1 11796:1 15766:1 17354:1 18608:1 19195:1 
0.07804819433719323 41:1 75:1 592:1 3123:1 4547:1 4999:1 5238:1 8108:1 8157:1 8419:1 11327:1 11796:1 12229:1 14263:1 16495:1 17354:1 17607:1 17668:1 19185:1 
0.07241256006672363 592:1 4690:1 5244:1 6529:1 7868:1 8419:1 9656:1 10245:1 11531:1 15652:1 17077:1 19477:1 
0.2013034380514128 2354:1 3833:1 7737:1 7891:1 8138:1 8419:1 9902:1 11202:1 13848:1 17239:1 17350:1 17354:1 18890:1 18946:1 19477:1 
0.5786149365224311 5247:1 10695:1 12355:1 14578:1 15643:1 
0.1527413330502824 0:1 2330:1 7868:1 8419:1 9130:1 10058:1 11202:1 11796:1 16510:1 16820:1 17658:1 
0.7232431063993731 1372:1 3251:1 5899:1 7301:1 8419:1 9130:1 9271:1 9901:1 10058:1 11731:1 15551:1 17354:1 17376:1 17607:1 18449:1 19358:1 
0.4469104783397058 592:1 7185:1 7241:1 7600:1 7891:1 7892:1 8078:1 9365:1 10313:1 10567:1 13670:1 17607:1 17973:1 
0.2993388363999969 7193:1 7654:1 9095:1 9860:1 11789:1 12742:1 17426:1 
0.2150382894211844 0:1 1309:1 1475:1 5442:1 5906:1 6338:1 7185:1 8003:1 8612:1 9547:1 14612:1 17350:1 18827:1 19076:1 19477:1 19497:1 
0.06934371271477632 1133:1 7037:1 7301:1 8419:1 9365:1 10217:1 11202:1 14022:1 
2.371494572207312 333:1 3835:1 4999:1 7891:1 8419:1 9115:1 9365:1 14664:1 17034:1 17350:1 17354:1 18450:1 19321:1 
0.258134003018737 0:1 7740:1 8302:1 8998:1 9006:1 9095:1 14097:1 16011:1 17607:1 17668:1 
0.465894985394612 6461:1 11202:1 15788:1 
0.00688956342724464 451:1 1350:1 2156:1 3283:1 5129:1 5830:1 6320:1 8053:1 8419:1 9365:1 10719:1 11202:1 16138:1 17354:1 19093:1 19349:1 
0.1810196945787339 3754:1 7669:1 8032:1 9365:1 9901:1 10567:1 12012:1 13501:1 17239:1 17350:1 17354:1 17607:1 19355:1 19477:1 
0.04510248251059331 0:1 511:1 2592:1 3920:1 4728:1 5645:1 6455:1 7301:1 8419:1 8612:1 9115:1 9983:1 10301:1 10567:1 11541:1 11580:1 11731:1 12209:1 14731:1 15061:1 15091:1 17354:1 17376:1 17607:1 17774:1 19076:1 19293:1 
0.2202330606720463 924:1 1252:1 3880:1 5721:1 8998:1 9200:1 9293:1 9365:1 10058:1 10567:1 17366:1 17607:1 18015:1 19477:1 19487:1 
2.694389684571344 1616:1 5369:1 8612:1 9095:1 11096:1 11202:1 13813:1 15896:1 19477:1 
0.002308171818975705 3391:1 5019:1 5393:1 6615:1 7807:1 8419:1 9115:1 9753:1 10873:1 11531:1 11796:1 13495:1 15781:1 17354:1 17542:1 19324:1 
0.7552594164988261 592:1 6255:1 6924:1 7232:1 8612:1 8998:1 9115:1 9365:1 10567:1 11096:1 11202:1 11731:1 11796:1 15980:1 16306:1 16518:1 17354:1 19032:1 
0.3345471696234434 333:1 685:1 939:1 3301:1 5059:1 6461:1 7679:1 8419:1 8465:1 9115:1 9365:1 11202:1 15390:1 16447:1 17034:1 17350:1 17360:1 17389:1 17408:1 17440:1 18401:1 19079:1 19237:1 
0.5760071717638189 0:1 2056:1 7384:1 7489:1 9115:1 10074:1 15613:1 19465:1 19487:1 
0.005384602854997852 567:1 930:1 3548:1 10567:1 11677:1 11731:1 14156:1 16112:1 
0.3062954600567725 0:1 2956:1 3907:1 4999:1 5944:1 7790:1 8849:1 9095:1 11257:1 11731:1 17354:1 18865:1 19057:1 19076:1 19463:1 19477:1 
0.06601105551326689 0:1 592:1 2820:1 4044:1 8419:1 9115:1 9219:1 9901:1 10567:1 11405:1 11580:1 11732:1 11796:1 12300:1 18890:1 19093:1 
0.03589480584849167 1705:1 1992:1 4475:1 6923:1 7384:1 9206:1 9365:1 11028:1 11132:1 11967:1 15431:1 17350:1 17607:1 18409:1 
0.5396760541690613 451:1 592:1 4722:1 7367:1 9095:1 9115:1 9410:1 12012:1 17551:1 18890:1 19057:1 19477:1 
0.2582998707580521 999:1 6455:1 7234:1 7603:1 7790:1 8419:1 14731:1 17350:1 17354:1 19057:1 19076:1 19477:1 19487:1 19540:1 
0.6472581305611743 1620:1 5906:1 7710:1 10882:1 11580:1 
0.4723913930619957 177:1 513:1 1398:1 5906:1 7333:1 7832:1 7891:1 8419:1 9615:1 11058:1 15097:1 15257:1 17350:1 17354:1 17607:1 
0.8955609845809925 592:1 5389:1 6924:1 7301:1 8612:1 9824:1 11731:1 14731:1 17362:1 17607:1 18912:1 19015:1 
0.5180672219162966 592:1 1433:1 4517:1 5918:1 7654:1 8419:1 10114:1 13496:1 17464:1 19477:1 
0.03966559143038726 513:1 1487:1 2534:1 8053:1 8419:1 9901:1 15896:1 17607:1 18273:1 18524:1 
0.3382758936961091 5204:1 8419:1 11327:1 16495:1 16583:1 17261:1 17607:1 
0.617369991818814 1433:1 2330:1 3287:1 6630:1 7185:1 8419:1 8612:1 8849:1 8863:1 11796:1 13169:1 13813:1 17354:1 17389:1 17486:1 17607:1 17903:1 18401:1 19477:1 
0.1914376398448465 344:1 594:1 4084:1 4722:1 5033:1 8465:1 9271:1 10557:1 10713:1 18890:1 19057:1 
0.01007093799645328 1881:1 6020:1 9095:1 17426:1 
0.5111579947597973 567:1 1887:1 5453:1 6431:1 7301:1 7498:1 8419:1 8612:1 9365:1 11202:1 13728:1 17607:1 18450:1 
0.06652038067626366 6936:1 9130:1 10379:1 10746:1 11531:1 13813:1 14807:1 17354:1 18077:1 18955:1 19268:1 
0.4086210767055553 642:1 1175:1 3287:1 3833:1 4999:1 8419:1 9400:1 10440:1 11731:1 12608:1 13215:1 17408:1 19076:1 19477:1 
0.5457831153404076 3696:1 8419:1 10188:1 10567:1 10619:1 11531:1 11731:1 11881:1 11967:1 
0.1562448825470308 342:1 7060:1 19209:1 19477:1 
0.09272396395831879 513:1 5106:1 6520:1 6954:1 8302:1 8419:1 10191:1 16855:1 17354:1 17607:1 19093:1 
0.9767775236725169 0:1 1718:1 3175:1 5059:1 7758:1 9095:1 11202:1 11731:1 15633:1 15773:1 17034:1 17354:1 
1.006851045948764 592:1 1147:1 4194:1 7917:1 8419:1 8612:1 11383:1 11967:1 13501:1 13813:1 14807:1 15154:1 15896:1 16956:1 17354:1 17444:1 19322:1 19477:1 
0.1246201084021584 976:1 1979:1 2330:1 2354:1 7384:1 7893:1 8157:1 8302:1 8419:1 9052:1 9115:1 9323:1 10188:1 11531:1 13848:1 16869:1 17426:1 
0.3612119711484437 592:1 8419:1 9365:1 9547:1 11561:1 11796:1 14982:1 15616:1 17354:1 17629:1 19155:1 19477:1 
0.002823244764009216 592:1 900:1 3873:1 8419:1 9115:1 9365:1 11202:1 13499:1 13942:1 14488:1 15213:1 
0.2290305664293263 1464:1 2066:1 5899:1 6341:1 6469:1 8053:1 9901:1 15896:1 16879:1 18401:1 18995:1 19258:1 19477:1 19487:1 
0.4425418224905767 0:1 2330:1 2442:1 5906:1 6529:1 6708:1 7891:1 9095:1 9660:1 10369:1 10838:1 11028:1 11426:1 11796:1 17034:1 17342:1 17682:1 17782:1 17992:1 19349:1 
0.07341885364723647 0:1 2456:1 5129:1 8076:1 8419:1 8465:1 9968:1 11202:1 11235:1 12429:1 14874:1 16442:1 17408:1 17478:1 19355:1 
1.252154682600493 1499:1 5672:1 6469:1 9115:1 9901:1 9930:1 11202:1 18890:1 19034:1 
0.2818199225952953 0:1 592:1 1175:1 1445:1 4722:1 4847:1 5107:1 6518:1 6523:1 7891:1 10244:1 13512:1 15664:1 17354:1 17735:1 19076:1 
0.6898205576013563 4691:1 6708:1 9115:1 10838:1 11580:1 17093:1 17354:1 17366:1 17464:1 17607:1 19477:1 
0.04504047552153963 8612:1 9095:1 10560:1 16080:1 17714:1 19057:1 
0.2593885933713411 1954:1 5276:1 10579:1 11580:1 11810:1 17350:1 17389:1 18048:1 19034:1 
0.1140260780443953 567:1 1587:1 1913:1 7280:1 8140:1 8924:1 9901:1 17354:1 17482:1 19466:1 
0.4988046560028924 7384:1 8053:1 10217:1 10786:1 15896:1 18955:1 
0.6280962907392231 592:1 3532:1 6977:1 8355:1 9115:1 11731:1 18890:1 
0.3550928790598324 0:1 333:1 451:1 1398:1 4194:1 5928:1 7342:1 9115:1 10060:1 11731:1 12381:1 17342:1 17350:1 17387:1 17408:1 19355:1 19449:1 19477:1 
0.1079260184017878 351:1 513:1 697:1 3396:1 3804:1 7333:1 8419:1 9750:1 11731:1 11798:1 15806:1 15896:1 17081:1 17354:1 17426:1 17607:1 19258:1 
0.2693940780403063 451:1 6701:1 6985:1 9095:1 11731:1 11967:1 13096:1 13848:1 15039:1 17084:1 17354:1 17405:1 17426:1 18317:1 
0.7526618096000307 2442:1 3175:1 6134:1 7185:1 11796:1 12659:1 18077:1 19487:1 
0.02886740742071281 41:1 1343:1 7173:1 7851:1 8419:1 10082:1 11798:1 12764:1 17405:1 
0.1989968857103877 451:1 5016:1 5033:1 8419:1 8612:1 10188:1 11435:1 11796:1 12549:1 16803:1 17504:1 19000:1 19060:1 
0.2308627024053417 3165:1 4722:1 6708:1 9115:1 9547:1 15991:1 16764:1 17373:1 17607:1 18950:1 19396:1 19477:1 19487:1 
0.1987296852618258 3364:1 6708:1 8419:1 8612:1 9601:1 10271:1 11731:1 18401:1 19057:1 
0.1764499201633991 1375:1 3480:1 4999:1 8419:1 9581:1 11531:1 19382:1 
0.5803081850022109 2330:1 4803:1 7891:1 8465:1 9954:1 10567:1 17092:1 17354:1 17607:1 17904:1 19057:1 19258:1 
0.391017013326542 4709:1 8465:1 8612:1 9115:1 9902:1 11757:1 13588:1 15435:1 17366:1 18091:1 19477:1 19487:1 
0.006754174345395801 0:1 4723:1 11202:1 11796:1 13515:1 13588:1 17034:1 17433:1 19477:1 
0.5918818396079869 3590:1 3906:1 4723:1 7832:1 7918:1 8419:1 8998:1 11731:1 12209:1 15337:1 17034:1 17081:1 18556:1 19026:1 19057:1 19477:1 
0.85663101285456 592:1 1795:1 4722:1 5037:1 7248:1 8419:1 10188:1 17354:1 18401:1 19032:1 19258:1 
0.1205750171486949 0:1 513:1 3317:1 5016:1 6157:1 7891:1 8078:1 8302:1 8419:1 8612:1 9547:1 9665:1 10060:1 10069:1 16854:1 17342:1 17354:1 17607:1 19076:1 
0.008854610283737739 0:1 6336:1 7868:1 8419:1 9901:1 11202:1 11639:1 14485:1 15434:1 16984:1 18626:1 
0.4466162902194749 2707:1 3142:1 5913:1 7188:1 8612:1 11028:1 11202:1 14911:1 15085:1 15431:1 17426:1 17542:1 17607:1 18058:1 
0.1679128940032413 0:1 1398:1 2791:1 7348:1 9115:1 9476:1 11426:1 11731:1 14612:1 14731:1 
0.06840190887739284 999:1 2330:1 4709:1 7185:1 7301:1 7348:1 8157:1 8419:1 8508:1 9901:1 11202:1 11531:1 11967:1 16390:1 16634:1 17034:1 17366:1 18890:1 18901:1 19045:1 19442:1 
0.1239282573867073 1175:1 1338:1 6300:1 6923:1 9095:1 13224:1 19487:1 
0.1647265440051365 3833:1 8419:1 11809:1 11894:1 15431:1 19249:1 19477:1 
0.2621859290934779 0:1 1510:1 5066:1 5295:1 5906:1 6362:1 7868:1 7982:1 8114:1 8419:1 8612:1 11218:1 11587:1 11606:1 11616:1 15720:1 15731:1 16495:1 16855:1 17354:1 17405:1 17607:1 18444:1 18890:1 18974:1 19312:1 
0.05579964972774661 2354:1 7301:1 7891:1 8157:1 8508:1 8612:1 10567:1 11096:1 11202:1 11561:1 11904:1 13832:1 15445:1 17607:1 17975:1 18401:1 19284:1 
1.606843614909896 0:1 1433:1 2471:1 2784:1 5386:1 6472:1 6708:1 8419:1 9115:1 10190:1 11327:1 17426:1 
0.7522447588834161 7790:1 8419:1 9477:1 11810:1 12404:1 15384:1 17426:1 17444:1 17607:1 18089:1 
0.2441013786679533 2159:1 11327:1 11963:1 14090:1 17607:1 18955:1 
0.08840688264390067 5459:1 7802:1 9432:1 10271:1 11580:1 11802:1 14973:1 17607:1 17975:1 19258:1 19477:1 
0.4988694351223235 1240:1 2471:1 4245:1 5899:1 7185:1 7891:1 8612:1 9901:1 11967:1 16585:1 17034:1 17351:1 19258:1 
0.08053307632303684 0:1 856:1 999:1 1245:1 4237:1 5082:1 5095:1 8612:1 11731:1 14874:1 15623:1 16481:1 17123:1 17354:1 17843:1 18955:1 19258:1 19367:1 19387:1 19477:1 19487:1 
0.01946745875869202 9102:1 9115:1 11469:1 11748:1 11757:1 12898:1 15337:1 17034:1 18372:1 
0.4851694838213115 1398:1 4723:1 5899:1 7185:1 8419:1 14807:1 16788:1 17034:1 17144:1 17426:1 17607:1 
1.362178727574276 3835:1 4709:1 7185:1 8419:1 11202:1 11967:1 16037:1 17034:1 
0.4038018650672677 1433:1 5017:1 6906:1 7679:1 8953:1 9365:1 10572:1 13813:1 17034:1 18955:1 
0.02075127568139593 0:1 687:1 1344:1 1795:1 6297:1 8419:1 8612:1 9263:1 10188:1 11731:1 11796:1 14731:1 17350:1 
0.07039840810846452 900:1 2516:1 5059:1 6708:1 8419:1 8612:1 9130:1 9985:1 10058:1 11829:1 12975:1 15896:1 17034:1 17354:1 18556:1 19313:1 
0.1994656314764277 0:1 1795:1 5361:1 9263:1 9265:1 9365:1 10887:1 14006:1 17350:1 19208:1 19477:1 
0.2361240718970405 0:1 1175:1 7333:1 8053:1 8612:1 9095:1 9347:1 9517:1 9901:1 10198:1 11613:1 17354:1 17551:1 17607:1 
0.1647888421906088 41:1 451:1 592:1 2442:1 8419:1 9095:1 11096:1 11202:1 13297:1 16150:1 17096:1 17408:1 
0.2816713073131739 0:1 2471:1 5147:1 5899:1 7868:1 10536:1 12548:1 13251:1 15975:1 17350:1 18955:1 
0.09522794535146611 41:1 5059:1 9115:1 9130:1 9901:1 11731:1 13095:1 17034:1 17092:1 17354:1 18734:1 18955:1 
0.417153251068023 1433:1 8419:1 9095:1 9115:1 13627:1 
0.363094921421612 1801:1 2210:1 6341:1 9095:1 9115:1 9901:1 11202:1 18491:1 
0.04474930577999114 202:1 567:1 866:1 2330:1 5657:1 6250:1 6708:1 8285:1 8419:1 9365:1 10718:1 11202:1 17670:1 18401:1 
0.1814051615147333 432:1 999:1 1251:1 1292:1 9365:1 11096:1 11796:1 14731:1 17354:1 17607:1 17610:1 18955:1 19487:1 
0.2802196330833531 3820:1 5129:1 8612:1 10567:1 11561:1 11627:1 11731:1 12570:1 17081:1 17350:1 17354:1 
0.2325051448319169 167:1 372:1 4722:1 5151:1 5913:1 6157:1 11202:1 14737:1 17239:1 19155:1 19477:1 19487:1 
0.7635987299051701 5392:1 9115:1 9901:1 11967:1 12161:1 14818:1 18890:1 
0.3015227757948087 83:1 8419:1 9365:1 10867:1 11796:1 17671:1 18015:1 19079:1 19477:1 
0.2213258354440081 0:1 618:1 5033:1 6529:1 7956:1 8053:1 8419:1 8636:1 9660:1 11202:1 11426:1 11580:1 11796:1 16812:1 18051:1 19258:1 
0.3094798353323975 194:1 5386:1 9115:1 9410:1 10276:1 11731:1 14805:1 15042:1 15896:1 17354:1 17607:1 17758:1 
0.04903577018421722 592:1 1205:1 2941:1 8078:1 9115:1 11731:1 11796:1 12661:1 13259:1 14152:1 14880:1 16735:1 17607:1 18428:1 18857:1 19477:1 
0.803718628071209 2442:1 6254:1 6805:1 8419:1 10838:1 18372:1 
1.235789799014913 4999:1 8302:1 11096:1 11731:1 11967:1 17151:1 17354:1 18893:1 19142:1 19477:1 19487:1 
0.1463021028727905 1251:1 4709:1 8099:1 9115:1 9488:1 9901:1 11731:1 11796:1 12421:1 14847:1 15005:1 15773:1 15896:1 17682:1 18890:1 
0.3495298011201612 1445:1 4114:1 6456:1 8419:1 8612:1 9095:1 9115:1 10867:1 11202:1 17350:1 19019:1 
0.838340600567982 333:1 1398:1 6157:1 7997:1 8276:1 10537:1 11732:1 17081:1 17682:1 19195:1 19477:1 
0.03944708133346795 2330:1 2442:1 4999:1 7997:1 8419:1 9115:1 14055:1 17034:1 18244:1 
0.03441428430269482 551:1 4462:1 5278:1 7333:1 9095:1 9323:1 10467:1 11731:1 11796:1 14312:1 17354:1 17607:1 19487:1 
0.003457048411289993 2532:1 4725:1 5913:1 7801:1 8612:1 9553:1 10301:1 15244:1 17350:1 17354:1 18890:1 19235:1 
0.478835595978078 592:1 1475:1 5033:1 5347:1 7729:1 7891:1 8612:1 9095:1 15423:1 15431:1 15627:1 16572:1 
0.269373245993048 7236:1 8419:1 9447:1 11028:1 17342:1 17387:1 18855:1 19477:1 
0.07645548718280251 856:1 6496:1 7301:1 12404:1 13813:1 13848:1 15438:1 15896:1 17034:1 17243:1 19477:1 
1.011502540813662 5019:1 6347:1 7384:1 7594:1 8140:1 8302:1 8612:1 11096:1 11202:1 11731:1 11967:1 12892:1 14731:1 15896:1 17350:1 17354:1 17366:1 
